{"learner":{"attributes":{"scikit_learn":"{\"_estimator_type\": \"regressor\"}"},"feature_names":["fixed acidity","volatile acidity","citric acid","residual sugar","chlorides","free sulfur dioxide","total sulfur dioxide","density","pH","sulphates","alcohol"],"feature_types":["float","float","float","float","float","float","float","float","float","float","float"],"gradient_booster":{"model":{"gbtree_model_param":{"num_parallel_tree":"1","num_trees":"100"},"iteration_indptr":[0,1,2,3,4,5,6,7,8,9,10,11,12,13,14,15,16,17,18,19,20,21,22,23,24,25,26,27,28,29,30,31,32,33,34,35,36,37,38,39,40,41,42,43,44,45,46,47,48,49,50,51,52,53,54,55,56,57,58,59,60,61,62,63,64,65,66,67,68,69,70,71,72,73,74,75,76,77,78,79,80,81,82,83,84,85,86,87,88,89,90,91,92,93,94,95,96,97,98,99,100],"tree_info":[0,0,0,0,0,0,0,0,0,0,0,0,0,0,0,0,0,0,0,0,0,0,0,0,0,0,0,0,0,0,0,0,0,0,0,0,0,0,0,0,0,0,0,0,0,0,0,0,0,0,0,0,0,0,0,0,0,0,0,0,0,0,0,0,0,0,0,0,0,0,0,0,0,0,0,0,0,0,0,0,0,0,0,0,0,0,0,0,0,0,0,0,0,0,0,0,0,0,0,0],"trees":[{"base_weights":[2.1244136E-7,-2.6821604E-1,4.4605553E-1,-3.285487E-2,-5.2654064E-1,-5.468924E-1,5.11115E-1,1.5081437E-1,-1.8057069E-1,-8.7587696E-1,-4.615247E-1,-1.5522586E0,-3.8925132E-1,3.1557143E-1,7.276717E-1,4.652376E-2,7.396366E-1,-3.061518E-1,-8.496224E-3,-3.154003E-1,-9.5097125E-1,-5.308032E-1,-8.379386E-2,-1.312787E-1,-1.6138102E0,-5.589004E-1,3.8315487E-1,3.3239216E-1,-1.4644496E0,4.8454827E-1,8.125675E-1,-1.6548601E-1,1.4229448E-1,1.1847086E0,1.7289062E-1,-5.9696335E-1,-2.2041005E-1,-6.3143164E-1,3.571372E-2,-5.8841527E-1,3.9269325E-1,-1.1125486E0,-7.380358E-1,-4.3986362E-1,-6.581617E-1,1.1409632E-1,-4.976874E-1,-1.312787E-1,-5.0630164E-1,-1.0835118E0,-3.9682215E-1,7.342077E-1,-1.579231E-2,3.413021E-1,-5.7503825E-1,-5.1004595E-1,-1.7503825E-1,6.6647726E-1,1.9650277E-1,4.3050376E-1,9.109421E-1,-3.0473772E-1,-3.5229385E-2,8.09502E-2,-1.7805018E-2,4.0083688E-1,3.209369E-2,1.5202917E-1,-3.244112E-2,-2.4977198E-1,-1.13306224E-1,-3.610862E-2,-1.4574637E-1,-2.4614754E-1,2.9954111E-2,2.0202915E-1,-2.321298E-3,-2.223747E-1,2.8081978E-2,2.9954111E-2,2.2496176E-1,-3.5655013E-1,-1.7312987E-1,3.1202199E-2,-2.4072815E-1,-1.439739E-1,6.506571E-3,-1.8510392E-1,-3.4805506E-1,-1.9468455E-2,2.4994537E-1,-9.246603E-2,-2.120114E-1,2.4961758E-2,-3.808222E-1,-1.3730621E-1,2.2496176E-1,2.4961758E-2,2.8120223E-1,-1.312787E-1,3.209369E-2,1.227009E-1,3.5445936E-2,1.3547918E-1,3.197359E-1,-1.547377E-1,8.600916E-2,2.0039824E-1,4.3028966E-2,2.3464684E-1,3.2765E-1],"categories":[],"categories_nodes":[],"categories_segments":[],"categories_sizes":[],"default_left":[0,0,0,0,0,0,0,0,0,0,0,0,0,0,0,0,0,0,0,0,0,0,0,0,0,0,0,0,0,0,0,0,0,0,0,0,0,0,0,0,0,0,0,0,0,0,0,0,0,0,0,0,0,0,0,0,0,0,0,0,0,0,0,0,0,0,0,0,0,0,0,0,0,0,0,0,0,0,0,0,0,0,0,0,0,0,0,0,0,0,0,0,0,0,0,0,0,0,0,0,0,0,0,0,0,0,0,0,0,0,0],"id":0,"left_children":[1,3,5,7,9,11,13,15,17,19,21,23,25,27,29,31,33,35,37,39,41,43,45,-1,47,49,51,53,55,57,59,61,63,65,67,69,71,73,75,77,79,81,83,85,87,89,91,-1,-1,93,95,97,99,101,-1,-1,-1,103,105,107,109,-1,-1,-1,-1,-1,-1,-1,-1,-1,-1,-1,-1,-1,-1,-1,-1,-1,-1,-1,-1,-1,-1,-1,-1,-1,-1,-1,-1,-1,-1,-1,-1,-1,-1,-1,-1,-1,-1,-1,-1,-1,-1,-1,-1,-1,-1,-1,-1,-1,-1],"loss_changes":[4.6898602E2,1.4882008E2,9.5371735E1,3.4808987E1,2.6101196E1,1.3818098E1,5.8292908E1,3.5091328E1,1.5361612E1,7.3601685E0,2.5757797E1,1.1711693E-1,1.0697186E1,2.228402E1,1.3125549E1,9.911756E0,2.1488049E1,1.0116585E1,8.312074E0,4.677429E0,4.6838074E0,9.358261E0,1.2670225E1,0E0,2.1713448E-1,5.1818924E0,2.1123679E0,1.5123199E1,4.6159077E-1,8.882492E0,1.7799164E1,6.091623E0,8.657143E0,7.6898804E0,3.7140775E0,4.490261E0,8.412203E0,2.8470368E0,7.81934E0,1.8413968E0,6.573175E-1,2.9335938E0,3.9873161E0,9.049515E0,6.41098E0,1.3568037E1,1.7622776E0,0E0,0E0,3.3589344E0,3.9724865E0,9.7992706E-1,4.6109614E-1,1.0828987E1,0E0,0E0,0E0,8.528065E0,4.5165377E0,6.7900944E0,8.108032E0,0E0,0E0,0E0,0E0,0E0,0E0,0E0,0E0,0E0,0E0,0E0,0E0,0E0,0E0,0E0,0E0,0E0,0E0,0E0,0E0,0E0,0E0,0E0,0E0,0E0,0E0,0E0,0E0,0E0,0E0,0E0,0E0,0E0,0E0,0E0,0E0,0E0,0E0,0E0,0E0,0E0,0E0,0E0,0E0,0E0,0E0,0E0,0E0,0E0,0E0],"parents":[2147483647,0,0,1,1,2,2,3,3,4,4,5,5,6,6,7,7,8,8,9,9,10,10,11,11,12,12,13,13,14,14,15,15,16,16,17,17,18,18,19,19,20,20,21,21,22,22,24,24,25,25,26,26,27,27,28,28,29,29,30,30,31,31,32,32,33,33,34,34,35,35,36,36,37,37,38,38,39,39,40,40,41,41,42,42,43,43,44,44,45,45,46,46,49,49,50,50,51,51,52,52,53,53,57,57,58,58,59,59,60,60],"right_children":[2,4,6,8,10,12,14,16,18,20,22,24,26,28,30,32,34,36,38,40,42,44,46,-1,48,50,52,54,56,58,60,62,64,66,68,70,72,74,76,78,80,82,84,86,88,90,92,-1,-1,94,96,98,100,102,-1,-1,-1,104,106,108,110,-1,-1,-1,-1,-1,-1,-1,-1,-1,-1,-1,-1,-1,-1,-1,-1,-1,-1,-1,-1,-1,-1,-1,-1,-1,-1,-1,-1,-1,-1,-1,-1,-1,-1,-1,-1,-1,-1,-1,-1,-1,-1,-1,-1,-1,-1,-1,-1,-1,-1],"split_conditions":[1.09E1,2.7E-1,1.15E1,2.1E-1,1.8E1,2.3E-1,1.19E1,9.9786E-1,9.9E0,9.9203E-1,1.04E1,4.8E0,1.27E1,5.3E-1,1.8E0,2.6E1,3.1E-1,2.7E-1,8.8E1,3.28E0,1.2E2,5.1E-2,1.59E2,-1.312787E-1,1.85E-1,6E0,3.3E-1,1.08E2,8.7E0,9.8998E-1,2.2E1,7E0,1.47E2,9.2E0,4.4E1,9.9E0,4.3E-1,4.2E-1,9.9E1,1.8E0,5.6E0,9.963E-1,2.75E-1,3.34E0,5.55E-1,3.32E0,4.4E-2,-1.312787E-1,-5.0630164E-1,2.35E-1,4.15E-1,9E0,1.7E-2,7.4E0,-5.7503825E-1,-5.1004595E-1,-1.7503825E-1,3.29E0,1.9E1,9.9074E-1,4.8E-1,-3.0473772E-1,-3.5229385E-2,8.09502E-2,-1.7805018E-2,4.0083688E-1,3.209369E-2,1.5202917E-1,-3.244112E-2,-2.4977198E-1,-1.13306224E-1,-3.610862E-2,-1.4574637E-1,-2.4614754E-1,2.9954111E-2,2.0202915E-1,-2.321298E-3,-2.223747E-1,2.8081978E-2,2.9954111E-2,2.2496176E-1,-3.5655013E-1,-1.7312987E-1,3.1202199E-2,-2.4072815E-1,-1.439739E-1,6.506571E-3,-1.8510392E-1,-3.4805506E-1,-1.9468455E-2,2.4994537E-1,-9.246603E-2,-2.120114E-1,2.4961758E-2,-3.808222E-1,-1.3730621E-1,2.2496176E-1,2.4961758E-2,2.8120223E-1,-1.312787E-1,3.209369E-2,1.227009E-1,3.5445936E-2,1.3547918E-1,3.197359E-1,-1.547377E-1,8.600916E-2,2.0039824E-1,4.3028966E-2,2.3464684E-1,3.2765E-1],"split_indices":[10,1,5,1,5,2,10,7,10,7,10,0,10,1,3,5,2,2,6,8,6,4,6,0,1,5,2,5,0,7,5,5,6,10,5,3,2,2,6,3,0,7,1,8,1,8,4,0,0,1,1,5,4,0,0,0,0,8,5,7,9,0,0,0,0,0,0,0,0,0,0,0,0,0,0,0,0,0,0,0,0,0,0,0,0,0,0,0,0,0,0,0,0,0,0,0,0,0,0,0,0,0,0,0,0,0,0,0,0,0,0],"split_type":[0,0,0,0,0,0,0,0,0,0,0,0,0,0,0,0,0,0,0,0,0,0,0,0,0,0,0,0,0,0,0,0,0,0,0,0,0,0,0,0,0,0,0,0,0,0,0,0,0,0,0,0,0,0,0,0,0,0,0,0,0,0,0,0,0,0,0,0,0,0,0,0,0,0,0,0,0,0,0,0,0,0,0,0,0,0,0,0,0,0,0,0,0,0,0,0,0,0,0,0,0,0,0,0,0,0,0,0,0,0,0],"sum_hessian":[3.918E3,2.447E3,1.471E3,1.281E3,1.166E3,9E1,1.381E3,5.71E2,7.1E2,1.81E2,9.85E2,1.1E1,7.9E1,7.27E2,6.54E2,4.86E2,8.5E1,4.1E2,3E2,2.2E1,1.59E2,8.32E2,1.53E2,1E0,1E1,6.5E1,1.4E1,7.21E2,6E0,1.71E2,4.83E2,1.51E2,3.35E2,4.7E1,3.8E1,9.2E1,3.18E2,1.9E1,2.81E2,1.6E1,6E0,8.8E1,7.1E1,4.88E2,3.44E2,1.04E2,4.9E1,1E0,9E0,1.4E1,5.1E1,7E0,7E0,7.19E2,2E0,4E0,2E0,1.04E2,6.7E1,1E2,3.83E2,7E0,1.44E2,2.05E2,1.3E2,4.1E1,6E0,1.7E1,2.1E1,4.3E1,4.9E1,2.32E2,8.6E1,1.5E1,4E0,1.7E1,2.64E2,1.3E1,3E0,4E0,2E0,7.6E1,1.2E1,5E0,6.6E1,4.49E2,3.9E1,3.2E2,2.4E1,8.4E1,2E1,2.7E1,2.2E1,2E0,1.2E1,4.9E1,2E0,2E0,5E0,1E0,6E0,5.51E2,1.68E2,6.9E1,3.5E1,7E0,6E1,5.4E1,4.6E1,2.27E2,1.56E2],"tree_param":{"num_deleted":"0","num_feature":"11","num_nodes":"111","size_leaf_vector":"1"}},{"base_weights":[-6.2470837E-4,-2.0824623E-1,2.844154E-1,4.9378674E-2,-3.2328886E-1,-3.976569E-1,3.3143824E-1,-4.8616797E-2,2.569096E-1,-2.1032704E-1,-4.645135E-1,-6.237147E-1,-5.9807833E-2,1.856166E-1,5.0377285E-1,-1.5586703E-1,7.951934E-2,4.1707438E-1,-5.6356065E-2,-4.2766607E-1,-1.6391484E-1,-1.0517066E0,-4.4106862E-1,-1.0195334E0,-3.4384292E-1,-3.4553787E-1,4.8186023E-2,7.946128E-2,3.6650917E-1,5.3264105E-1,-6.653889E-2,-4.6609744E-1,-7.228189E-2,-2.0550092E-1,1.7231676E-1,2.764306E-1,9.2266464E-1,-4.0232328E-1,1.2790807E-1,-7.758638E-1,-3.1389695E-1,-2.4473348E-1,2.8700938E-2,-1.0187753E-1,-1.1266141E0,-1.9674467E-1,-4.8914576E-1,-1.2629552E0,-5.7278043E-1,5.427879E-1,-4.606804E-1,-1.9103569E-1,3.089206E-1,2.1697867E-1,-1.07915536E-1,5.317708E-1,1.8436892E-1,4.2851484E-1,6.6904086E-1,-5.6300795E-1,1.2696995E-1,-8.497454E-2,-2.5744712E-1,1.9300195E-3,-1.9273137E-1,4.5188226E-2,-1.4237525E-1,-2.4146636E-3,8.2637854E-2,3.969922E-1,6.2559806E-2,9.0074964E-2,3.8433036E-1,-1.7437808E-1,-1.2001306E-2,-1.6350947E-1,6.892355E-2,-1.5963618E-1,-2.869319E-1,-3.4193885E-2,-1.56701E-1,-1.1315225E-2,-9.409196E-2,-2.0271314E-2,9.045963E-2,5.2077558E-2,-9.792245E-2,-7.779615E-2,-3.459143E-1,4.0560175E-2,-1.12781204E-1,-1.3795683E-1,-2.6059046E-1,-1.3083386E-1,-4.0497738E-1,3.931725E-2,-1.96881E-1,1.8970968E-2,2.5242302E-1,2.9433329E-2,-1.8116468E-1,-2.1901618E-1,3.2752924E-2,4.684944E-2,2.2078653E-1,8.335924E-2,-5.8456887E-2,-8.3941504E-2,2.134211E-2,1.737046E-1,1.9342903E-2,-3.09447E-2,1.0610845E-1,1.1582879E-1,3.151434E-1,6.0295027E-2,2.2228988E-1,-4.5993686E-2,-3.4176704E-1,7.2878976E-3,1.395533E-1],"categories":[],"categories_nodes":[],"categories_segments":[],"categories_sizes":[],"default_left":[0,0,0,0,0,0,0,0,0,0,0,0,0,0,0,0,0,0,0,0,0,0,0,0,0,0,0,0,0,0,0,0,0,0,0,0,0,0,0,0,0,0,0,0,0,0,0,0,0,0,0,0,0,0,0,0,0,0,0,0,0,0,0,0,0,0,0,0,0,0,0,0,0,0,0,0,0,0,0,0,0,0,0,0,0,0,0,0,0,0,0,0,0,0,0,0,0,0,0,0,0,0,0,0,0,0,0,0,0,0,0,0,0,0,0,0,0,0,0,0,0],"id":1,"left_children":[1,3,5,7,9,11,13,15,17,19,21,23,25,27,29,31,33,35,37,39,41,43,45,47,49,-1,51,53,55,57,59,61,63,65,67,69,71,73,75,77,79,81,83,85,87,89,91,93,95,97,99,101,103,105,107,109,111,113,115,117,119,-1,-1,-1,-1,-1,-1,-1,-1,-1,-1,-1,-1,-1,-1,-1,-1,-1,-1,-1,-1,-1,-1,-1,-1,-1,-1,-1,-1,-1,-1,-1,-1,-1,-1,-1,-1,-1,-1,-1,-1,-1,-1,-1,-1,-1,-1,-1,-1,-1,-1,-1,-1,-1,-1,-1,-1,-1,-1,-1,-1],"loss_changes":[2.3198746E2,6.723458E1,5.3116364E1,1.4268791E1,2.4916595E1,8.134653E0,3.875766E1,6.567629E0,1.1312682E1,8.736008E0,9.117737E0,6.7392635E0,5.2443185E0,1.608195E1,1.1691849E1,6.7082796E0,5.801325E0,1.0340055E1,4.96016E0,5.817425E0,1.1230791E1,1.7351055E0,7.7855988E0,2.1040897E0,4.2901278E0,0E0,2.616323E0,1.3680229E1,9.233204E0,9.28598E0,3.4339755E0,3.6997528E0,9.249413E0,5.2462053E0,3.0717788E0,8.111577E0,6.754427E0,1.7272182E0,3.6202593E0,1.1195831E0,4.815938E0,7.2346497E0,5.641298E0,2.4221574E-1,2.5121117E-1,6.7128286E0,5.825012E0,5.6184006E-1,7.324035E-1,6.628151E-1,2.8599458E0,3.6397402E0,1.1897097E0,7.727021E0,6.944916E0,3.5391579E0,7.2904344E0,9.751862E0,9.613983E0,2.1860733E0,8.9157885E-1,0E0,0E0,0E0,0E0,0E0,0E0,0E0,0E0,0E0,0E0,0E0,0E0,0E0,0E0,0E0,0E0,0E0,0E0,0E0,0E0,0E0,0E0,0E0,0E0,0E0,0E0,0E0,0E0,0E0,0E0,0E0,0E0,0E0,0E0,0E0,0E0,0E0,0E0,0E0,0E0,0E0,0E0,0E0,0E0,0E0,0E0,0E0,0E0,0E0,0E0,0E0,0E0,0E0,0E0,0E0,0E0,0E0,0E0,0E0,0E0],"parents":[2147483647,0,0,1,1,2,2,3,3,4,4,5,5,6,6,7,7,8,8,9,9,10,10,11,11,12,12,13,13,14,14,15,15,16,16,17,17,18,18,19,19,20,20,21,21,22,22,23,23,24,24,26,26,27,27,28,28,29,29,30,30,31,31,32,32,33,33,34,34,35,35,36,36,37,37,38,38,39,39,40,40,41,41,42,42,43,43,44,44,45,45,46,46,47,47,48,48,49,49,50,50,51,51,52,52,53,53,54,54,55,55,56,56,57,57,58,58,59,59,60,60],"right_children":[2,4,6,8,10,12,14,16,18,20,22,24,26,28,30,32,34,36,38,40,42,44,46,48,50,-1,52,54,56,58,60,62,64,66,68,70,72,74,76,78,80,82,84,86,88,90,92,94,96,98,100,102,104,106,108,110,112,114,116,118,120,-1,-1,-1,-1,-1,-1,-1,-1,-1,-1,-1,-1,-1,-1,-1,-1,-1,-1,-1,-1,-1,-1,-1,-1,-1,-1,-1,-1,-1,-1,-1,-1,-1,-1,-1,-1,-1,-1,-1,-1,-1,-1,-1,-1,-1,-1,-1,-1,-1,-1,-1,-1,-1,-1,-1,-1,-1,-1,-1,-1],"split_conditions":[1.065E1,2.3E-1,1.15E1,1E1,3.05E-1,1.175E1,1.175E1,4.9E-1,2.05E-1,2.5E1,9E0,9.9142E-1,2.1E1,3.25E0,8.2E0,6.15E0,2.5E1,5.6E-2,4.1E-1,2.5E-1,9.9E0,9.9203E-1,4E-2,9E0,6.4E0,-3.4553787E-1,1.225E1,2.55E-1,4E-2,3.6E0,2E1,2E-1,8.5E0,6.8E0,3.1E-1,9.9577E-1,7.3E0,6.9E0,3.5E1,4.5E-2,7.1E0,3.08E0,3.29E0,7E0,2.88E0,3.35E-1,5.9E-1,2E-1,1.85E-1,5.1E0,4E-1,3.4E-2,3.15E-1,7.9E0,1.12E1,1.1633333E1,3E1,7.5E-1,9.2E1,3.01E0,1.27E1,-8.497454E-2,-2.5744712E-1,1.9300195E-3,-1.9273137E-1,4.5188226E-2,-1.4237525E-1,-2.4146636E-3,8.2637854E-2,3.969922E-1,6.2559806E-2,9.0074964E-2,3.8433036E-1,-1.7437808E-1,-1.2001306E-2,-1.6350947E-1,6.892355E-2,-1.5963618E-1,-2.869319E-1,-3.4193885E-2,-1.56701E-1,-1.1315225E-2,-9.409196E-2,-2.0271314E-2,9.045963E-2,5.2077558E-2,-9.792245E-2,-7.779615E-2,-3.459143E-1,4.0560175E-2,-1.12781204E-1,-1.3795683E-1,-2.6059046E-1,-1.3083386E-1,-4.0497738E-1,3.931725E-2,-1.96881E-1,1.8970968E-2,2.5242302E-1,2.9433329E-2,-1.8116468E-1,-2.1901618E-1,3.2752924E-2,4.684944E-2,2.2078653E-1,8.335924E-2,-5.8456887E-2,-8.3941504E-2,2.134211E-2,1.737046E-1,1.9342903E-2,-3.09447E-2,1.0610845E-1,1.1582879E-1,3.151434E-1,6.0295027E-2,2.2228988E-1,-4.5993686E-2,-3.4176704E-1,7.2878976E-3,1.395533E-1],"split_indices":[10,1,5,3,1,10,10,9,1,5,5,7,6,8,0,0,5,4,9,2,10,7,4,5,0,0,10,1,4,3,5,1,0,0,2,7,0,0,5,4,0,8,8,0,8,1,1,1,1,0,9,4,1,0,10,10,5,9,6,8,10,0,0,0,0,0,0,0,0,0,0,0,0,0,0,0,0,0,0,0,0,0,0,0,0,0,0,0,0,0,0,0,0,0,0,0,0,0,0,0,0,0,0,0,0,0,0,0,0,0,0,0,0,0,0,0,0,0,0,0,0],"split_type":[0,0,0,0,0,0,0,0,0,0,0,0,0,0,0,0,0,0,0,0,0,0,0,0,0,0,0,0,0,0,0,0,0,0,0,0,0,0,0,0,0,0,0,0,0,0,0,0,0,0,0,0,0,0,0,0,0,0,0,0,0,0,0,0,0,0,0,0,0,0,0,0,0,0,0,0,0,0,0,0,0,0,0,0,0,0,0,0,0,0,0,0,0,0,0,0,0,0,0,0,0,0,0,0,0,0,0,0,0,0,0,0,0,0,0,0,0,0,0,0,0],"sum_hessian":[3.918E3,2.267E3,1.651E3,7E2,1.567E3,1.06E2,1.545E3,4.76E2,2.24E2,8.72E2,6.95E2,6.3E1,4.3E1,8.38E2,7.07E2,2.59E2,2.17E2,1.48E2,7.6E1,1.52E2,7.2E2,2.5E1,6.7E2,2.5E1,3.8E1,3E0,4E1,5.29E2,3.09E2,6.73E2,3.4E1,5.4E1,2.05E2,5.3E1,1.64E2,1.17E2,3.1E1,2.6E1,5E1,3.6E1,1.16E2,5.07E2,2.13E2,2E0,2.3E1,1.11E2,5.59E2,1.5E1,1E1,4E0,3.4E1,2.1E1,1.9E1,3.05E2,2.24E2,1.61E2,1.48E2,3.84E2,2.89E2,9E0,2.5E1,3.8E1,1.6E1,1.81E2,2.4E1,2.3E1,3E1,6E1,1.04E2,6E0,1.11E2,1.2E1,1.9E1,1.7E1,9E0,6E0,4.4E1,1.7E1,1.9E1,6E1,5.6E1,1.27E2,3.8E2,1.58E2,5.5E1,1E0,1E0,1E0,2.2E1,3.9E1,7.2E1,5.21E2,3.8E1,2E0,1.3E1,1E0,9E0,2E0,2E0,7E0,2.7E1,7E0,1.4E1,1.5E1,4E0,2.66E2,3.9E1,1.14E2,1.1E2,1.46E2,1.5E1,5.5E1,9.3E1,3.61E2,2.3E1,3.9E1,2.5E2,6E0,3E0,2E1,5E0],"tree_param":{"num_deleted":"0","num_feature":"11","num_nodes":"121","size_leaf_vector":"1"}},{"base_weights":[-8.57099E-4,-1.4643829E-1,1.9900912E-1,-4.9913388E-2,-3.0352703E-1,-2.1876447E-1,2.417964E-1,6.34819E-2,-1.1452843E-1,-7.08738E-1,-2.8193432E-1,-3.8601643E-1,7.262951E-2,1.891712E-1,4.9899805E-1,-2.6745593E-2,3.281236E-1,-3.2083493E-1,-7.718827E-2,-5.552154E-1,-9.108776E-1,-9.138954E-2,-3.2164857E-1,-6.305877E-2,-4.7867447E-1,-8.9263964E-1,1.4278594E-1,1.1847234E-1,3.0847728E-1,5.344861E-1,4.0163198E-3,-3.9848596E-2,2.403052E-1,2.1246657E-1,7.2360265E-1,-6.2775636E-1,-2.4672075E-1,-1.7127135E-1,3.468961E-2,-5.922137E-1,6.1010886E-2,-8.0117375E-2,-1.0297633E0,-2.325755E-1,4.339975E-2,-3.1046975E-1,-9.171334E-1,-4.3500385E-1,4.6397024E-1,-7.3459595E-1,-3.0513576E-1,-5.9756257E-2,-3.1721836E-1,6.0543174E-1,-3.427588E-2,1.360431E-1,-4.688056E-1,-5.6915087E-1,3.2712886E-1,5.5920273E-1,-3.575182E-1,-3.9570305E-1,2.5183275E-1,-2.3441118E-1,-7.7250623E-3,9.559873E-2,-1.97527E-2,7.754736E-2,3.6104184E-1,1.2291241E-2,-1.9684328E-1,-1.9036949E-2,-1.248756E-1,-1.0225087E-2,-8.779283E-2,-4.7742393E-2,3.3069123E-2,-9.200495E-2,-2.254508E-1,-3.239078E-1,-5.7102658E-2,-9.9860944E-2,1.0068824E-1,7.725537E-2,-6.0764004E-2,-1.6668122E-1,-8.743428E-2,-3.1236735E-1,6.7180395E-2,-1.7374995E-1,2.105831E-2,-5.3037215E-2,1.938778E-1,-2.9819188E-1,-1.336554E-1,3.858704E-3,-1.4090362E-1,-7.448959E-2,2.2676243E-1,3.1067997E-2,-9.855496E-2,7.9278145E-3,6.1799925E-2,-7.505866E-2,-4.3339643E-1,5.01081E-2,-2.7255502E-1,1.7690481E-1,8.158189E-2,1.5487798E-1,2.6772046E-1,-3.2529986E-1,4.502226E-2,-1.2261183E-1,1.3071112E-1],"categories":[],"categories_nodes":[],"categories_segments":[],"categories_sizes":[],"default_left":[0,0,0,0,0,0,0,0,0,0,0,0,0,0,0,0,0,0,0,0,0,0,0,0,0,0,0,0,0,0,0,0,0,0,0,0,0,0,0,0,0,0,0,0,0,0,0,0,0,0,0,0,0,0,0,0,0,0,0,0,0,0,0,0,0,0,0,0,0,0,0,0,0,0,0,0,0,0,0,0,0,0,0,0,0,0,0,0,0,0,0,0,0,0,0,0,0,0,0,0,0,0,0,0,0,0,0,0,0,0,0,0,0,0,0],"id":2,"left_children":[1,3,5,7,9,11,13,15,17,19,21,23,25,27,29,31,33,35,37,39,41,43,45,47,49,51,53,55,57,59,61,63,-1,65,67,69,71,73,75,77,-1,-1,79,81,83,85,87,89,91,93,95,-1,-1,97,99,101,103,105,107,109,111,-1,113,-1,-1,-1,-1,-1,-1,-1,-1,-1,-1,-1,-1,-1,-1,-1,-1,-1,-1,-1,-1,-1,-1,-1,-1,-1,-1,-1,-1,-1,-1,-1,-1,-1,-1,-1,-1,-1,-1,-1,-1,-1,-1,-1,-1,-1,-1,-1,-1,-1,-1,-1,-1],"loss_changes":[1.14059364E2,3.437447E1,2.9583046E1,1.030909E1,7.3510895E0,7.5334134E0,2.0195E1,1.2210412E1,6.8775873E0,8.2868576E-1,6.1833878E0,2.9024296E0,3.987487E0,1.0473221E1,4.459606E0,4.1751595E0,5.792451E0,2.9614916E0,8.005562E0,8.7822914E-1,1.0261908E0,2.7314348E0,4.2352448E0,4.7104235E0,3.1511822E0,2.4637866E-1,4.444264E0,8.153812E0,7.765091E0,5.425148E0,6.233788E0,3.9211378E0,0E0,3.0356164E0,6.1615114E0,5.204611E-1,3.4533157E0,6.8667507E0,5.113008E0,9.52055E-1,0E0,0E0,3.8125038E-1,4.1008463E0,3.9491172E0,2.9529495E0,1.9323244E0,1.0602844E0,1.2822897E0,1.806572E0,2.4652858E0,0E0,0E0,2.1142492E0,1.6562978E0,5.837908E0,4.545155E0,2.6500828E0,6.418167E0,2.844551E0,2.745209E0,0E0,2.1213374E0,0E0,0E0,0E0,0E0,0E0,0E0,0E0,0E0,0E0,0E0,0E0,0E0,0E0,0E0,0E0,0E0,0E0,0E0,0E0,0E0,0E0,0E0,0E0,0E0,0E0,0E0,0E0,0E0,0E0,0E0,0E0,0E0,0E0,0E0,0E0,0E0,0E0,0E0,0E0,0E0,0E0,0E0,0E0,0E0,0E0,0E0,0E0,0E0,0E0,0E0,0E0,0E0],"parents":[2147483647,0,0,1,1,2,2,3,3,4,4,5,5,6,6,7,7,8,8,9,9,10,10,11,11,12,12,13,13,14,14,15,15,16,16,17,17,18,18,19,19,20,20,21,21,22,22,23,23,24,24,25,25,26,26,27,27,28,28,29,29,30,30,31,31,33,33,34,34,35,35,36,36,37,37,38,38,39,39,42,42,43,43,44,44,45,45,46,46,47,47,48,48,49,49,50,50,53,53,54,54,55,55,56,56,57,57,58,58,59,59,60,60,62,62],"right_children":[2,4,6,8,10,12,14,16,18,20,22,24,26,28,30,32,34,36,38,40,42,44,46,48,50,52,54,56,58,60,62,64,-1,66,68,70,72,74,76,78,-1,-1,80,82,84,86,88,90,92,94,96,-1,-1,98,100,102,104,106,108,110,112,-1,114,-1,-1,-1,-1,-1,-1,-1,-1,-1,-1,-1,-1,-1,-1,-1,-1,-1,-1,-1,-1,-1,-1,-1,-1,-1,-1,-1,-1,-1,-1,-1,-1,-1,-1,-1,-1,-1,-1,-1,-1,-1,-1,-1,-1,-1,-1,-1,-1,-1,-1,-1,-1],"split_conditions":[1.065E1,2.9E-1,1.4E1,2.05E-1,8.7E1,1.19E1,1.26E1,1.14E1,2.35E1,4.75E-1,4E-2,2.05E-1,2.1E1,3.25E0,4.3E-1,8.1E-1,5.6E-2,2.5E-1,9.55E0,2.5E1,5.8E0,9.9E0,9E0,3.18E0,9.9142E-1,4.8E0,3E-2,4.85E-1,1E0,5.85E-1,2E1,2.89E0,2.403052E-1,5E1,1.85E-1,2.95E0,7.1E0,3.14E0,4.4E-1,9.733334E0,6.1010886E-2,-8.0117375E-2,5.5E-1,9.9825E-1,1.42E2,1.4E1,1.55E1,1.03E2,1.65E-1,9E0,1E1,-5.9756257E-2,-3.1721836E-1,9.8889E-1,3.23E0,2.3E0,4.7E-2,3.8E-2,4.1E-1,4.45E-1,1.35E0,-3.9570305E-1,4.7E-1,-2.3441118E-1,-7.7250623E-3,9.559873E-2,-1.97527E-2,7.754736E-2,3.6104184E-1,1.2291241E-2,-1.9684328E-1,-1.9036949E-2,-1.248756E-1,-1.0225087E-2,-8.779283E-2,-4.7742393E-2,3.3069123E-2,-9.200495E-2,-2.254508E-1,-3.239078E-1,-5.7102658E-2,-9.9860944E-2,1.0068824E-1,7.725537E-2,-6.0764004E-2,-1.6668122E-1,-8.743428E-2,-3.1236735E-1,6.7180395E-2,-1.7374995E-1,2.105831E-2,-5.3037215E-2,1.938778E-1,-2.9819188E-1,-1.336554E-1,3.858704E-3,-1.4090362E-1,-7.448959E-2,2.2676243E-1,3.1067997E-2,-9.855496E-2,7.9278145E-3,6.1799925E-2,-7.505866E-2,-4.3339643E-1,5.01081E-2,-2.7255502E-1,1.7690481E-1,8.158189E-2,1.5487798E-1,2.6772046E-1,-3.2529986E-1,4.502226E-2,-1.2261183E-1,1.3071112E-1],"split_indices":[10,1,5,1,6,10,10,3,5,1,4,1,6,8,2,9,4,2,10,5,0,10,0,8,7,0,4,1,3,1,5,8,0,5,1,8,0,8,9,10,0,0,9,7,6,5,3,6,1,5,5,0,0,7,8,3,4,4,9,1,3,0,2,0,0,0,0,0,0,0,0,0,0,0,0,0,0,0,0,0,0,0,0,0,0,0,0,0,0,0,0,0,0,0,0,0,0,0,0,0,0,0,0,0,0,0,0,0,0,0,0,0,0,0,0],"split_type":[0,0,0,0,0,0,0,0,0,0,0,0,0,0,0,0,0,0,0,0,0,0,0,0,0,0,0,0,0,0,0,0,0,0,0,0,0,0,0,0,0,0,0,0,0,0,0,0,0,0,0,0,0,0,0,0,0,0,0,0,0,0,0,0,0,0,0,0,0,0,0,0,0,0,0,0,0,0,0,0,0,0,0,0,0,0,0,0,0,0,0,0,0,0,0,0,0,0,0,0,0,0,0,0,0,0,0,0,0,0,0,0,0,0,0],"sum_hessian":[3.918E3,2.267E3,1.651E3,1.405E3,8.62E2,1.53E2,1.498E3,5.1E2,8.95E2,4.2E1,8.2E2,9.7E1,5.6E1,1.245E3,2.53E2,3.81E2,1.29E2,1.36E2,7.59E2,2.6E1,1.6E1,1.42E2,6.78E2,2.2E1,7.5E1,3E0,5.3E1,7.83E2,4.62E2,2.36E2,1.7E1,3.76E2,5E0,1.01E2,2.8E1,2.5E1,1.11E2,4.12E2,3.47E2,2.5E1,1E0,3E0,1.3E1,6.9E1,7.3E1,6.67E2,1.1E1,1.3E1,9E0,2.9E1,4.6E1,1E0,2E0,1.4E1,3.9E1,7.61E2,2.2E1,9E0,4.53E2,2.3E2,6E0,2E0,1.5E1,6E0,3.7E2,7.3E1,2.8E1,1.5E1,1.3E1,1E0,2.4E1,5.4E1,5.7E1,1.94E2,2.18E2,9.7E1,2.5E2,1E1,1.5E1,1.2E1,1E0,5.9E1,1E1,3.9E1,3.4E1,4.6E1,6.21E2,1E1,1E0,1E1,3E0,2E0,7E0,1.4E1,1.5E1,1.6E1,3E1,2E0,1.2E1,2.7E1,1.2E1,2.97E2,4.64E2,1.9E1,3E0,3E0,6E0,7.7E1,3.76E2,2.06E2,2.4E1,2E0,4E0,3E0,1.2E1],"tree_param":{"num_deleted":"0","num_feature":"11","num_nodes":"115","size_leaf_vector":"1"}},{"base_weights":[-1.2759193E-3,-9.1622636E-2,1.6207393E-1,-1.2792036E-3,-1.9225536E-1,-3.1409122E-2,2.2488475E-1,-5.734481E-2,1.24803156E-1,-3.588492E-1,-1.6424775E-1,2.979299E-1,-1.0802428E-1,1.7383668E-1,4.5910707E-1,2.8761607E-2,-1.281927E-1,2.8590232E-1,2.370248E-2,-2.9877457E-1,-7.737263E-1,-8.729377E-2,-2.7381885E-1,-2.954825E-1,3.9857623E-1,-4.1254714E-1,-2.2709584E-2,1.8157841E-1,-4.625509E-1,3.8049442E-1,7.9188526E-1,-5.9832454E-2,2.3384656E-1,-6.0235083E-1,-1.1148069E-1,8.575839E-2,4.3231863E-1,-1.9759235E-1,1.3486436E-1,-3.7679926E-1,-6.504208E-2,6.8798095E-2,-8.353453E-1,-1.4668424E-1,1.2166756E-1,-7.35045E-1,-2.6083994E-1,3.824921E-2,-4.1716462E-1,4.7533533E-1,4.1349497E-2,-1.9604611E-1,-6.7791706E-1,-6.432264E-2,5.475162E-1,-9.177664E-2,2.2075053E-1,2.1878359E-1,6.5958154E-1,-1.7835809E-2,8.452831E-1,-4.6420466E-2,1.889105E-2,1.04008E-1,-7.80593E-2,-2.0198794E-1,7.990888E-2,-4.3732285E-2,1.0943948E-2,9.599184E-2,-9.146838E-2,-6.284078E-2,1.5695485E-1,-3.3812772E-2,-2.1137165E-1,-1.5870129E-1,5.134121E-2,2.140792E-1,-1.2086246E-1,-1.1795334E-1,3.42444E-2,-3.1532615E-1,-1.1410404E-1,-3.16882E-2,-9.942158E-2,1.3384107E-1,1.0686786E-2,-1.1152714E-1,-2.6685902E-1,-8.05296E-2,1.2325213E-1,-3.8272157E-2,-1.6962129E-1,1.8913889E-1,5.2085925E-2,-7.313364E-2,7.173165E-2,-8.9425E-2,2.9751354E-1,-2.3969433E-1,-8.715522E-2,-9.4131395E-2,-1.1481148E-3,2.1377562E-1,1.0748821E-1,1.5865488E-2,-1.4234452E-1,8.053206E-2,1.2428626E-2,-8.432837E-3,1.3839029E-1,2.497373E-1,9.2034526E-2,2.7354687E-1,4.0474176E-2],"categories":[],"categories_nodes":[],"categories_segments":[],"categories_sizes":[],"default_left":[0,0,0,0,0,0,0,0,0,0,0,0,0,0,0,0,0,0,0,0,0,0,0,0,0,0,0,0,0,0,0,0,0,0,0,0,0,0,0,0,0,0,0,0,0,0,0,0,0,0,0,0,0,0,0,0,0,0,0,0,0,0,0,0,0,0,0,0,0,0,0,0,0,0,0,0,0,0,0,0,0,0,0,0,0,0,0,0,0,0,0,0,0,0,0,0,0,0,0,0,0,0,0,0,0,0,0,0,0,0,0,0,0,0,0],"id":3,"left_children":[1,3,5,7,9,11,13,15,17,19,21,23,25,27,29,31,33,35,37,39,41,43,45,47,49,51,53,55,-1,57,59,61,63,65,67,69,71,73,75,77,79,-1,81,83,85,87,89,-1,91,93,95,97,99,101,103,105,107,109,111,-1,113,-1,-1,-1,-1,-1,-1,-1,-1,-1,-1,-1,-1,-1,-1,-1,-1,-1,-1,-1,-1,-1,-1,-1,-1,-1,-1,-1,-1,-1,-1,-1,-1,-1,-1,-1,-1,-1,-1,-1,-1,-1,-1,-1,-1,-1,-1,-1,-1,-1,-1,-1,-1,-1,-1],"loss_changes":[5.785193E1,2.2946716E1,1.6972412E1,9.415841E0,5.5121384E0,8.686884E0,1.2522446E1,5.6283083E0,6.670989E0,4.0307655E0,8.610394E0,3.9998832E0,7.239127E0,1.17957E1,4.6168785E0,7.590593E0,3.94246E0,4.593011E0,6.2503333E0,2.7292633E0,1.4895182E0,7.501265E0,2.3344517E0,5.678783E-1,1.5158873E0,3.3717232E0,5.2318344E0,9.271881E0,0E0,6.805935E0,1.6413383E0,3.4127898E0,7.1148705E0,1.2270255E0,2.4916253E0,6.319323E0,5.4163055E0,3.5784807E0,4.160138E0,3.500391E0,2.3380282E0,0E0,1.5634661E0,3.5295105E0,3.7252455E0,2.866583E-1,2.2112503E0,0E0,2.7129996E-1,2.043542E0,6.78533E-1,4.5374546E0,1.0341864E0,3.0923612E0,2.1320629E-1,6.0596294E0,6.4540405E0,5.9406753E0,3.1600933E0,0E0,1.436821E0,0E0,0E0,0E0,0E0,0E0,0E0,0E0,0E0,0E0,0E0,0E0,0E0,0E0,0E0,0E0,0E0,0E0,0E0,0E0,0E0,0E0,0E0,0E0,0E0,0E0,0E0,0E0,0E0,0E0,0E0,0E0,0E0,0E0,0E0,0E0,0E0,0E0,0E0,0E0,0E0,0E0,0E0,0E0,0E0,0E0,0E0,0E0,0E0,0E0,0E0,0E0,0E0,0E0,0E0],"parents":[2147483647,0,0,1,1,2,2,3,3,4,4,5,5,6,6,7,7,8,8,9,9,10,10,11,11,12,12,13,13,14,14,15,15,16,16,17,17,18,18,19,19,20,20,21,21,22,22,23,23,24,24,25,25,26,26,27,27,29,29,30,30,31,31,32,32,33,33,34,34,35,35,36,36,37,37,38,38,39,39,40,40,42,42,43,43,44,44,45,45,46,46,48,48,49,49,50,50,51,51,52,52,53,53,54,54,55,55,56,56,57,57,58,58,60,60],"right_children":[2,4,6,8,10,12,14,16,18,20,22,24,26,28,30,32,34,36,38,40,42,44,46,48,50,52,54,56,-1,58,60,62,64,66,68,70,72,74,76,78,80,-1,82,84,86,88,90,-1,92,94,96,98,100,102,104,106,108,110,112,-1,114,-1,-1,-1,-1,-1,-1,-1,-1,-1,-1,-1,-1,-1,-1,-1,-1,-1,-1,-1,-1,-1,-1,-1,-1,-1,-1,-1,-1,-1,-1,-1,-1,-1,-1,-1,-1,-1,-1,-1,-1,-1,-1,-1,-1,-1,-1,-1,-1,-1,-1,-1,-1,-1,-1],"split_conditions":[1.0966666E1,2.7E-1,2.2E1,5.3E-1,1.5E0,2E-1,5.9E-1,2.05E-1,9.9398E-1,4.8E-1,5E-2,1.1E1,1.5E0,7.5E1,5.05E1,9.7E0,8.8E0,2.8E1,7.1E0,5.4E-2,3E-1,3.26E0,8.7E0,1.55E-1,7.4E0,9.9066E-1,1.33E1,1.3E0,-4.625509E-1,1.225E1,2.4E-2,1.0133333E1,5.4E1,1.58E2,1.895E2,1.1E2,2.5E-1,5.8E1,3.5E-2,8E0,1.21E2,6.8798095E-2,3.22E0,3.85E-1,9.9341E-1,5.4E-2,1.995E1,3.824921E-2,1.6E0,3.7E-1,3.7E-1,7.7E0,4.3E-2,3.06E0,5.1E-1,1.29E2,4.3E-2,3.27E0,1.15E2,-1.7835809E-2,4.9E-2,-4.6420466E-2,1.889105E-2,1.04008E-1,-7.80593E-2,-2.0198794E-1,7.990888E-2,-4.3732285E-2,1.0943948E-2,9.599184E-2,-9.146838E-2,-6.284078E-2,1.5695485E-1,-3.3812772E-2,-2.1137165E-1,-1.5870129E-1,5.134121E-2,2.140792E-1,-1.2086246E-1,-1.1795334E-1,3.42444E-2,-3.1532615E-1,-1.1410404E-1,-3.16882E-2,-9.942158E-2,1.3384107E-1,1.0686786E-2,-1.1152714E-1,-2.6685902E-1,-8.05296E-2,1.2325213E-1,-3.8272157E-2,-1.6962129E-1,1.8913889E-1,5.2085925E-2,-7.313364E-2,7.173165E-2,-8.9425E-2,2.9751354E-1,-2.3969433E-1,-8.715522E-2,-9.4131395E-2,-1.1481148E-3,2.1377562E-1,1.0748821E-1,1.5865488E-2,-1.4234452E-1,8.053206E-2,1.2428626E-2,-8.432837E-3,1.3839029E-1,2.497373E-1,9.2034526E-2,2.7354687E-1,4.0474176E-2],"split_indices":[10,1,5,9,3,1,9,1,7,1,4,5,3,5,5,3,10,5,3,4,9,8,10,1,0,7,10,3,0,10,4,10,5,6,6,6,2,5,4,5,6,0,8,1,7,4,3,0,3,2,2,0,4,8,9,6,4,8,6,0,4,0,0,0,0,0,0,0,0,0,0,0,0,0,0,0,0,0,0,0,0,0,0,0,0,0,0,0,0,0,0,0,0,0,0,0,0,0,0,0,0,0,0,0,0,0,0,0,0,0,0,0,0,0,0],"split_type":[0,0,0,0,0,0,0,0,0,0,0,0,0,0,0,0,0,0,0,0,0,0,0,0,0,0,0,0,0,0,0,0,0,0,0,0,0,0,0,0,0,0,0,0,0,0,0,0,0,0,0,0,0,0,0,0,0,0,0,0,0,0,0,0,0,0,0,0,0,0,0,0,0,0,0,0,0,0,0,0,0,0,0,0,0,0,0,0,0,0,0,0,0,0,0,0,0,0,0,0,0,0,0,0,0,0,0,0,0,0,0,0,0,0,0],"sum_hessian":[3.918E3,2.523E3,1.395E3,1.33E3,1.193E3,3.42E2,1.053E3,9.21E2,4.09E2,1.7E2,1.023E3,6.4E1,2.78E2,8.66E2,1.87E2,4.16E2,5.05E2,1.57E2,2.52E2,1.5E2,2E1,6.02E2,4.21E2,9E0,5.5E1,6E1,2.18E2,8.63E2,3E0,1.53E2,3.4E1,2.91E2,1.25E2,1.6E1,4.89E2,6.7E1,9E1,8.4E1,1.68E2,1.12E2,3.8E1,1E0,1.9E1,4.69E2,1.33E2,1E1,4.11E2,2E0,7E0,4.5E1,1E1,3.4E1,2.6E1,2.04E2,1.4E1,1.08E2,7.55E2,9.8E1,5.5E1,2E0,3.2E1,1.64E2,1.27E2,1.02E2,2.3E1,1.5E1,1E0,3.97E2,9.2E1,4.2E1,2.5E1,1.1E1,7.9E1,7.3E1,1.1E1,8E0,1.6E2,2E0,1.1E2,1.3E1,2.5E1,1.2E1,7E0,3.85E2,8.4E1,2.7E1,1.06E2,4E0,6E0,4.07E2,4E0,3E0,4E0,2.9E1,1.6E1,4E0,6E0,3.2E1,2E0,1.9E1,7E0,3.9E1,1.65E2,6E0,8E0,7.9E1,2.9E1,5.96E2,1.59E2,4.9E1,4.9E1,3.6E1,1.9E1,2.9E1,3E0],"tree_param":{"num_deleted":"0","num_feature":"11","num_nodes":"115","size_leaf_vector":"1"}},{"base_weights":[-1.0550193E-3,-4.6573453E-2,1.7730774E-1,-2.227677E-1,-1.6673576E-2,-2.0311794E-1,1.9296873E-1,-3.603651E-1,-1.5813287E-1,-2.696031E-1,1.9293868E-3,5.8854733E-2,-7.08598E-1,2.0397009E-1,-2.5029376E-1,-3.0844423E-1,-6.342698E-1,-7.107984E-2,-2.554316E-1,-2.9956886E-1,1.13524236E-1,5.271253E-2,-7.6451875E-2,-7.5543947E-3,2.1801697E-1,-1.0310222E0,-1.1548462E-1,1.9372393E-1,8.728504E-1,-4.1703138E-1,4.7923017E-1,-1.4238633E-1,-3.6775005E-1,-7.08516E-1,-3.6909845E-2,-2.583519E-1,4.1246567E-2,-1.7024918E-2,-3.1694174E-1,-2.2221567E-1,-5.915822E-1,1.1542414E-1,-3.3439636E-2,-5.434807E-2,9.618487E-2,-2.9836914E-2,-1.9448029E-1,-1.3470879E-1,6.254977E-2,-8.465843E-2,-3.8223425E-1,-7.156334E-2,1.382103E-2,9.821767E-2,2.4861383E-1,1.9032955E-2,9.474468E-1,-2.6357037E-1,-1.8997188E-1,-1.23754265E-2,1.9994237E-1,-8.142732E-2,1.1823205E-1,-8.116796E-2,-1.6319917E-1,-3.7724018E-2,-2.3090407E-1,1.1401535E-1,-9.6305914E-2,-5.2138466E-2,6.0552064E-2,-1.6002753E-1,3.083975E-2,-1.0121677E-1,1.01980664E-1,-8.15697E-2,5.9006892E-2,-2.973467E-1,-1.2454409E-1,5.6184307E-2,-4.643659E-2,-1.1939113E-2,-2.4890171E-1,-1.68052E-2,3.8552206E-2,-6.7118686E-3,-3.2020187E-1,-9.13707E-2,-1.0320323E-2,4.7748446E-2,-1.0186036E-1,5.5367272E-2,-1.9104322E-2,7.834172E-2,-1.05346784E-1,9.0745024E-2,3.212632E-1,-1.0348541E-1,6.7498446E-3],"categories":[],"categories_nodes":[],"categories_segments":[],"categories_sizes":[],"default_left":[0,0,0,0,0,0,0,0,0,0,0,0,0,0,0,0,0,0,0,0,0,0,0,0,0,0,0,0,0,0,0,0,0,0,0,0,0,0,0,0,0,0,0,0,0,0,0,0,0,0,0,0,0,0,0,0,0,0,0,0,0,0,0,0,0,0,0,0,0,0,0,0,0,0,0,0,0,0,0,0,0,0,0,0,0,0,0,0,0,0,0,0,0,0,0,0,0,0,0],"id":4,"left_children":[1,3,5,7,9,11,13,15,17,19,21,23,25,27,29,31,33,35,37,39,41,43,45,47,-1,49,51,53,55,57,59,61,63,65,-1,67,69,71,73,75,77,-1,79,81,83,85,87,-1,89,-1,-1,-1,-1,91,93,-1,95,-1,97,-1,-1,-1,-1,-1,-1,-1,-1,-1,-1,-1,-1,-1,-1,-1,-1,-1,-1,-1,-1,-1,-1,-1,-1,-1,-1,-1,-1,-1,-1,-1,-1,-1,-1,-1,-1,-1,-1,-1,-1],"loss_changes":[3.1825808E1,1.644883E1,4.787592E0,3.9718094E0,1.25682125E1,4.279207E0,3.7864437E0,1.8522396E0,2.6075902E0,2.1349773E0,9.911363E0,9.8124623E-1,1.9845076E0,4.957285E0,2.5109963E0,1.1589661E0,7.478924E-1,3.4815288E0,2.1356106E0,3.7085285E0,5.709053E-1,7.0376863E0,5.3805466E0,6.780204E-1,0E0,9.1469E-1,1.10394254E-1,3.8444214E0,6.0405827E-1,1.5098369E0,4.173218E-1,2.4607234E0,1.3944712E0,5.804634E-1,0E0,2.6024585E0,3.6266448E0,1.973028E0,1.6727448E0,2.8839936E0,2.0559845E0,0E0,2.9683125E-1,4.897113E0,5.2957163E0,5.4201107E0,4.87107E0,0E0,7.921158E-1,0E0,0E0,0E0,0E0,3.7998781E0,3.607439E0,0E0,4.7215843E-1,0E0,4.029056E-1,0E0,0E0,0E0,0E0,0E0,0E0,0E0,0E0,0E0,0E0,0E0,0E0,0E0,0E0,0E0,0E0,0E0,0E0,0E0,0E0,0E0,0E0,0E0,0E0,0E0,0E0,0E0,0E0,0E0,0E0,0E0,0E0,0E0,0E0,0E0,0E0,0E0,0E0,0E0,0E0],"parents":[2147483647,0,0,1,1,2,2,3,3,4,4,5,5,6,6,7,7,8,8,9,9,10,10,11,11,12,12,13,13,14,14,15,15,16,16,17,17,18,18,19,19,20,20,21,21,22,22,23,23,25,25,26,26,27,27,28,28,29,29,30,30,31,31,32,32,33,33,35,35,36,36,37,37,38,38,39,39,40,40,42,42,43,43,44,44,45,45,46,46,48,48,53,53,54,54,56,56,58,58],"right_children":[2,4,6,8,10,12,14,16,18,20,22,24,26,28,30,32,34,36,38,40,42,44,46,48,-1,50,52,54,56,58,60,62,64,66,-1,68,70,72,74,76,78,-1,80,82,84,86,88,-1,90,-1,-1,-1,-1,92,94,-1,96,-1,98,-1,-1,-1,-1,-1,-1,-1,-1,-1,-1,-1,-1,-1,-1,-1,-1,-1,-1,-1,-1,-1,-1,-1,-1,-1,-1,-1,-1,-1,-1,-1,-1,-1,-1,-1,-1,-1,-1,-1,-1],"split_conditions":[1.17E1,2.4E-1,1E1,2.6E1,1.4E1,3.23E0,5.5E-1,5.55E-1,4.15E1,9.965E-1,1.59E2,3.75E-1,3.95E-1,6.15E1,6.55E-1,9.5E0,5.2E-1,9.5E0,4.1E-1,9.9445E-1,8.6E0,9.733334E0,4.3E-1,3.02E0,2.1801697E-1,3.5E-1,4.9E0,2.1E0,4.4E0,2.8E0,6.15E0,5.7E-2,9.9398E-1,5.8E0,-3.6909845E-2,3.05E0,3.18E0,2.1E0,1.735E1,3.32E0,3.2E-1,1.1542414E-1,6.8E1,9E0,1.3E0,1.185E2,9.5E0,-1.3470879E-1,1.18E1,-8.465843E-2,-3.8223425E-1,-7.156334E-2,1.382103E-2,9.902E-1,1.92E2,1.9032955E-2,1.65E-1,-2.6357037E-1,4.9E-1,-1.23754265E-2,1.9994237E-1,-8.142732E-2,1.1823205E-1,-8.116796E-2,-1.6319917E-1,-3.7724018E-2,-2.3090407E-1,1.1401535E-1,-9.6305914E-2,-5.2138466E-2,6.0552064E-2,-1.6002753E-1,3.083975E-2,-1.0121677E-1,1.01980664E-1,-8.15697E-2,5.9006892E-2,-2.973467E-1,-1.2454409E-1,5.6184307E-2,-4.643659E-2,-1.1939113E-2,-2.4890171E-1,-1.68052E-2,3.8552206E-2,-6.7118686E-3,-3.2020187E-1,-9.13707E-2,-1.0320323E-2,4.7748446E-2,-1.0186036E-1,5.5367272E-2,-1.9104322E-2,7.834172E-2,-1.05346784E-1,9.0745024E-2,3.212632E-1,-1.0348541E-1,6.7498446E-3],"split_indices":[10,2,5,5,5,8,1,1,5,7,6,1,1,5,1,10,9,10,9,7,3,10,2,8,0,2,0,3,0,3,0,4,7,0,0,8,8,3,3,8,2,0,6,0,3,5,10,0,3,0,0,0,0,7,6,0,1,0,9,0,0,0,0,0,0,0,0,0,0,0,0,0,0,0,0,0,0,0,0,0,0,0,0,0,0,0,0,0,0,0,0,0,0,0,0,0,0,0,0],"split_type":[0,0,0,0,0,0,0,0,0,0,0,0,0,0,0,0,0,0,0,0,0,0,0,0,0,0,0,0,0,0,0,0,0,0,0,0,0,0,0,0,0,0,0,0,0,0,0,0,0,0,0,0,0,0,0,0,0,0,0,0,0,0,0,0,0,0,0,0,0,0,0,0,0,0,0,0,0,0,0,0,0,0,0,0,0,0,0,0,0,0,0,0,0,0,0,0,0,0,0],"sum_hessian":[3.918E3,3.122E3,7.96E2,4.52E2,2.67E3,3.1E1,7.65E2,1.43E2,3.09E2,1.82E2,2.488E3,2.1E1,1E1,7.47E2,1.8E1,1.22E2,2.1E1,1.64E2,1.45E2,1.69E2,1.3E1,1.51E3,9.78E2,2E1,1E0,6E0,4E0,7.37E2,1E1,1.5E1,3E0,3.3E1,8.9E1,1.8E1,3E0,6.1E1,1.03E2,3E1,1.15E2,1.35E2,3.4E1,4E0,9E0,4.36E2,1.074E3,7.02E2,2.76E2,2E0,1.8E1,2E0,4E0,2E0,2E0,2.7E2,4.67E2,1E0,9E0,4E0,1.1E1,1E0,2E0,2.7E1,6E0,5.9E1,3E1,2E0,1.6E1,5E0,5.6E1,4.4E1,5.9E1,5E0,2.5E1,1.12E2,3E0,1.21E2,1.4E1,9E0,2.5E1,3E0,6E0,4.29E2,7E0,1.88E2,8.86E2,6.98E2,4E0,1.63E2,1.13E2,1.5E1,3E0,1.76E2,9.4E1,4.58E2,9E0,2E0,7E0,6E0,5E0],"tree_param":{"num_deleted":"0","num_feature":"11","num_nodes":"99","size_leaf_vector":"1"}},{"base_weights":[-1.2055661E-3,-3.203699E-2,1.2889561E-1,7.728849E-2,-5.9733946E-2,8.4492145E-3,1.6796738E-1,5.2113223E-1,5.7676997E-2,1.8910041E-2,-8.984313E-2,1.5143742E-1,-1.1197105E-1,9.837224E-2,2.7177343E-1,7.371381E-1,8.0208495E-2,-3.5250476E-1,8.1540406E-2,-4.6065924E-1,3.3670753E-2,-1.6904867E-1,-4.7983583E-2,6.2136704E-1,6.567684E-2,-3.9934242E-1,-1.721449E-2,1.7464583E-1,-1.13089725E-1,2.3440488E-1,6.6852367E-1,4.3988648E-1,2.9565406E-1,-9.255731E-2,4.730446E-2,-5.239757E-1,5.523165E-3,4.645888E-3,1.5088105E-1,7.192494E-2,-5.907135E-1,-7.666045E-2,9.1599524E-2,-2.5293192E-1,-1.0160479E-1,1.16782025E-1,-7.422956E-2,2.802647E-1,2.1975176E-1,6.8997186E-1,9.62615E-3,-7.386787E-1,-2.9287485E-2,-3.1917244E-1,1.0556585E-2,-3.9002795E-2,3.2856438E-1,-3.238565E-1,1.8312495E-2,2.5319612E-1,-1.3306957E-1,8.0333424E-1,-3.7849307E-2,1.5249972E-1,3.3220578E-2,-7.7732846E-2,-2.5271723E-1,1.2922202E-1,-7.827834E-2,1.5029949E-1,-6.5080286E-3,3.2241467E-2,1.16342545E-1,-1.9127864E-1,3.0941822E-2,-5.2388627E-3,-1.1211554E-1,2.52781E-2,3.449141E-1,-6.339589E-2,-1.9097075E-1,-7.489581E-2,-1.1554059E-2,-1.1148134E-2,8.6689055E-2,-1.4877566E-2,-6.539233E-2,1.1943344E-1,-4.0637613E-3,6.2568E-2,2.2336268E-1,-8.319524E-2,2.6746335E-2,-2.5443283E-1,8.6173445E-2,9.266353E-2,-1.0898085E-1,-9.637327E-3,1.3075759E-1,-5.9330154E-2,1.9255038E-2,-1.5877545E-1,1.06936604E-1,2.021609E-1,-1.1190633E-1,7.237419E-2,-4.187755E-2,6.2304623E-2,1.5307647E-1,7.549911E-2,2.7338523E-1,-7.793069E-2,3.681407E-2],"categories":[],"categories_nodes":[],"categories_segments":[],"categories_sizes":[],"default_left":[0,0,0,0,0,0,0,0,0,0,0,0,0,0,0,0,0,0,0,0,0,0,0,0,0,0,0,0,0,0,0,0,0,0,0,0,0,0,0,0,0,0,0,0,0,0,0,0,0,0,0,0,0,0,0,0,0,0,0,0,0,0,0,0,0,0,0,0,0,0,0,0,0,0,0,0,0,0,0,0,0,0,0,0,0,0,0,0,0,0,0,0,0,0,0,0,0,0,0,0,0,0,0,0,0,0,0,0,0,0,0,0,0],"id":5,"left_children":[1,3,5,7,9,11,13,15,17,19,21,23,25,27,29,31,33,35,37,39,41,43,45,47,49,51,53,55,57,59,61,63,-1,-1,-1,65,67,69,71,-1,73,75,77,79,81,83,85,-1,87,89,91,93,95,-1,97,99,101,103,105,107,-1,109,111,-1,-1,-1,-1,-1,-1,-1,-1,-1,-1,-1,-1,-1,-1,-1,-1,-1,-1,-1,-1,-1,-1,-1,-1,-1,-1,-1,-1,-1,-1,-1,-1,-1,-1,-1,-1,-1,-1,-1,-1,-1,-1,-1,-1,-1,-1,-1,-1,-1,-1],"loss_changes":[1.572404E1,9.600295E0,3.5328264E0,5.549489E0,5.9901333E0,3.2024121E0,4.069499E0,2.5124116E0,6.0485687E0,4.9777384E0,6.055954E0,3.3848133E0,2.7433877E0,5.519726E0,3.2087917E0,8.954258E-1,3.4981167E-1,2.0902E0,3.1024745E0,2.0545382E0,4.359532E0,3.5497837E0,5.189341E0,1.4280863E0,2.5477865E0,3.1176932E0,2.2494524E0,8.266821E0,2.5261955E0,2.77495E0,1.8397102E0,1.6900015E-1,0E0,0E0,0E0,1.7214885E0,1.4719855E0,3.6322505E0,3.1055012E0,0E0,6.512861E-1,4.125975E0,3.3743956E0,4.3513737E0,3.2782507E0,4.3842354E0,3.6511421E0,0E0,2.966691E-1,2.3434162E-3,1.5764934E0,1.7030921E0,1.5804431E0,0E0,1.3935778E0,1.7492172E0,3.6817484E0,1.9682152E0,2.040211E0,2.2807856E0,0E0,7.235069E-1,1.744054E-1,0E0,0E0,0E0,0E0,0E0,0E0,0E0,0E0,0E0,0E0,0E0,0E0,0E0,0E0,0E0,0E0,0E0,0E0,0E0,0E0,0E0,0E0,0E0,0E0,0E0,0E0,0E0,0E0,0E0,0E0,0E0,0E0,0E0,0E0,0E0,0E0,0E0,0E0,0E0,0E0,0E0,0E0,0E0,0E0,0E0,0E0,0E0,0E0,0E0,0E0],"parents":[2147483647,0,0,1,1,2,2,3,3,4,4,5,5,6,6,7,7,8,8,9,9,10,10,11,11,12,12,13,13,14,14,15,15,16,16,17,17,18,18,19,19,20,20,21,21,22,22,23,23,24,24,25,25,26,26,27,27,28,28,29,29,30,30,31,31,35,35,36,36,37,37,38,38,40,40,41,41,42,42,43,43,44,44,45,45,46,46,48,48,49,49,50,50,51,51,52,52,54,54,55,55,56,56,57,57,58,58,59,59,61,61,62,62],"right_children":[2,4,6,8,10,12,14,16,18,20,22,24,26,28,30,32,34,36,38,40,42,44,46,48,50,52,54,56,58,60,62,64,-1,-1,-1,66,68,70,72,-1,74,76,78,80,82,84,86,-1,88,90,92,94,96,-1,98,100,102,104,106,108,-1,110,112,-1,-1,-1,-1,-1,-1,-1,-1,-1,-1,-1,-1,-1,-1,-1,-1,-1,-1,-1,-1,-1,-1,-1,-1,-1,-1,-1,-1,-1,-1,-1,-1,-1,-1,-1,-1,-1,-1,-1,-1,-1,-1,-1,-1,-1,-1,-1,-1,-1,-1],"split_conditions":[1.175E1,2E-1,2.2E1,8.9E0,4E-2,9.9035E-1,4.8E-1,1.56E2,2.93E0,8E0,3E1,1.205E1,2.8E-2,3.9E-2,4.45E-1,1.36E2,4.6E0,4.8E-1,1.03E1,4.7E1,3.12E0,2.4E0,1.33E2,6.6E0,3.3E-1,9.9158E-1,1.2E0,1.13E2,3.2E-1,5.9E-1,3.5E1,5.2E-2,2.9565406E-1,-9.255731E-2,4.730446E-2,3.3E-1,9.9188E-1,2.97E0,6.6E-1,7.192494E-2,5.4E-1,9.9734E-1,9.1E0,1.765E2,2.5E-1,1.18E2,1.47E1,2.802647E-1,1.5E-1,2.1E-2,1.25E1,8.1E0,4.85E-1,-3.1917244E-1,8.2E-1,2.9E-1,2.97E0,9.8869E-1,4.1E-1,3.38E0,-1.3306957E-1,2.1E0,6.4E0,1.5249972E-1,3.3220578E-2,-7.7732846E-2,-2.5271723E-1,1.2922202E-1,-7.827834E-2,1.5029949E-1,-6.5080286E-3,3.2241467E-2,1.16342545E-1,-1.9127864E-1,3.0941822E-2,-5.2388627E-3,-1.1211554E-1,2.52781E-2,3.449141E-1,-6.339589E-2,-1.9097075E-1,-7.489581E-2,-1.1554059E-2,-1.1148134E-2,8.6689055E-2,-1.4877566E-2,-6.539233E-2,1.1943344E-1,-4.0637613E-3,6.2568E-2,2.2336268E-1,-8.319524E-2,2.6746335E-2,-2.5443283E-1,8.6173445E-2,9.266353E-2,-1.0898085E-1,-9.637327E-3,1.3075759E-1,-5.9330154E-2,1.9255038E-2,-1.5877545E-1,1.06936604E-1,2.021609E-1,-1.1190633E-1,7.237419E-2,-4.187755E-2,6.2304623E-2,1.5307647E-1,7.549911E-2,2.7338523E-1,-7.793069E-2,3.681407E-2],"split_indices":[10,1,5,10,4,7,9,6,8,5,5,10,4,4,1,6,0,9,10,6,8,3,6,0,9,7,3,6,2,2,5,4,0,0,0,2,7,8,9,0,1,7,0,6,2,6,3,0,1,4,10,3,1,0,9,2,8,7,9,8,0,3,0,0,0,0,0,0,0,0,0,0,0,0,0,0,0,0,0,0,0,0,0,0,0,0,0,0,0,0,0,0,0,0,0,0,0,0,0,0,0,0,0,0,0,0,0,0,0,0,0,0,0],"split_type":[0,0,0,0,0,0,0,0,0,0,0,0,0,0,0,0,0,0,0,0,0,0,0,0,0,0,0,0,0,0,0,0,0,0,0,0,0,0,0,0,0,0,0,0,0,0,0,0,0,0,0,0,0,0,0,0,0,0,0,0,0,0,0,0,0,0,0,0,0,0,0,0,0,0,0,0,0,0,0,0,0,0,0,0,0,0,0,0,0,0,0,0,0,0,0,0,0,0,0,0,0,0,0,0,0,0,0,0,0,0,0,0,0],"sum_hessian":[3.918E3,3.168E3,7.5E2,6.4E2,2.528E3,1.84E2,5.66E2,2.6E1,6.14E2,7E2,1.828E3,8.4E1,1E2,3.4E2,2.26E2,1.7E1,9E0,3.3E1,5.81E2,2E1,6.8E2,6.31E2,1.197E3,1.2E1,7.2E1,2.4E1,7.6E1,2.5E2,9E1,2.08E2,1.8E1,9E0,8E0,1E0,8E0,2.2E1,1.1E1,2.76E2,3.05E2,3E0,1.7E1,2.34E2,4.46E2,2.8E2,3.51E2,1.64E2,1.033E3,6E0,6E0,5E0,6.7E1,1.2E1,1.2E1,1E0,7.5E1,1.05E2,1.45E2,3.4E1,5.6E1,2.03E2,5E0,1.5E1,3E0,7E0,2E0,1.3E1,9E0,4E0,7E0,1.3E1,2.63E2,2.59E2,4.6E1,1.6E1,1E0,1.96E2,3.8E1,4.44E2,2E0,2.54E2,2.6E1,1.04E2,2.47E2,8.7E1,7.7E1,8.83E2,1.5E2,3E0,3E0,1E0,4E0,1.4E1,5.3E1,1.1E1,1E0,6E0,6E0,6.9E1,6E0,4.1E1,6.4E1,4E0,1.41E2,1E0,3.3E1,2.3E1,3.3E1,1.74E2,2.9E1,3E0,1.2E1,1E0,2E0],"tree_param":{"num_deleted":"0","num_feature":"11","num_nodes":"113","size_leaf_vector":"1"}},{"base_weights":[-6.066881E-4,-1.9414507E-2,1.1200663E-1,-1.3268963E-1,-1.167922E-3,8.6415514E-2,3.837113E-1,-5.0260866E-1,-1.14974394E-1,3.7773084E-3,-3.5410455E-1,-2.5505638E-2,1.1837681E-1,4.380481E-1,-5.773565E-1,-2.9613115E-2,-6.226574E-1,-6.936703E-1,-1.0684027E-1,1.5116294E-2,-1.5097561E-1,-5.3143203E-1,5.50704E-2,2.8022628E-2,-3.584632E-1,1.5694442E-1,-1.0625383E-2,5.4562193E-1,-1.4113033E-1,-2.058991E-1,-5.3911332E-2,-1.14361756E-1,-2.1882236E-1,-2.3497836E-1,-3.6857344E-2,-1.22815855E-1,9.4397716E-2,1.0756984E-2,3.516207E-1,-1.879859E-1,1.205554E-1,-3.3863384E-1,-3.5457596E-1,1.9811988E-1,-1.4484064E-1,2.7723694E-1,-1.2402924E-2,-3.0633143E-1,3.55652E-2,4.0361145E-1,1.2887384E-1,-3.2696296E-2,1.9872023E-1,6.1515174E-3,6.8464166E-1,1.0160637E-1,-1.2278059E-1,-3.1036898E-2,-1.612801E-1,-6.709906E-2,7.272291E-2,-3.8414173E-2,6.322921E-3,1.2613069E-1,-1.4988357E-1,-6.1236832E-2,1.6223806E-1,-2.4662571E-2,1.10297725E-1,-6.164756E-2,-1.840807E-1,1.07358105E-1,-5.6220297E-2,-8.199244E-2,-3.6839605E-3,-4.408125E-2,1.2188365E-1,-4.5078255E-2,1.4645847E-2,1.1150022E-1,-1.9365914E-1,6.1847556E-2,2.5901034E-1,-6.0230806E-3,6.008606E-2,-3.8519148E-2,4.9852613E-2,-6.1215285E-2,9.59752E-2,-5.9104014E-2,2.1617919E-1,8.0014735E-2,-8.382469E-2],"categories":[],"categories_nodes":[],"categories_segments":[],"categories_sizes":[],"default_left":[0,0,0,0,0,0,0,0,0,0,0,0,0,0,0,0,0,0,0,0,0,0,0,0,0,0,0,0,0,0,0,0,0,0,0,0,0,0,0,0,0,0,0,0,0,0,0,0,0,0,0,0,0,0,0,0,0,0,0,0,0,0,0,0,0,0,0,0,0,0,0,0,0,0,0,0,0,0,0,0,0,0,0,0,0,0,0,0,0,0,0,0,0],"id":6,"left_children":[1,3,5,7,9,11,13,15,17,19,21,23,25,27,29,-1,31,33,35,37,39,41,43,45,47,49,51,53,55,-1,-1,-1,-1,-1,-1,57,59,61,63,65,67,69,-1,71,73,75,77,-1,79,81,83,85,-1,87,89,91,-1,-1,-1,-1,-1,-1,-1,-1,-1,-1,-1,-1,-1,-1,-1,-1,-1,-1,-1,-1,-1,-1,-1,-1,-1,-1,-1,-1,-1,-1,-1,-1,-1,-1,-1,-1,-1],"loss_changes":[8.302659E0,6.9425077E0,3.867601E0,2.9960032E0,5.0523887E0,1.8416717E0,2.7595344E0,9.567747E-1,2.0252929E0,5.0120683E0,2.9315848E0,2.0596485E0,1.9917903E0,2.9430075E0,6.6643953E-3,0E0,1.3434649E-1,2.10608E-1,1.4293618E0,3.8997107E0,1.9823031E0,3.111322E0,4.0045905E-1,1.0109011E0,4.213909E0,2.0806046E0,1.4031079E0,2.9206724E0,5.622803E-1,0E0,0E0,0E0,0E0,0E0,0E0,3.228664E0,1.6077551E0,3.7669902E0,2.2016892E0,2.1331463E0,1.2327139E0,7.159364E-1,0E0,5.5972946E-1,9.882231E-2,8.2600534E-1,7.4161524E-1,0E0,2.7580178E0,2.6361961E0,2.9611144E0,1.7532656E0,0E0,6.588685E-1,1.1246815E0,3.890761E-1,0E0,0E0,0E0,0E0,0E0,0E0,0E0,0E0,0E0,0E0,0E0,0E0,0E0,0E0,0E0,0E0,0E0,0E0,0E0,0E0,0E0,0E0,0E0,0E0,0E0,0E0,0E0,0E0,0E0,0E0,0E0,0E0,0E0,0E0,0E0,0E0,0E0],"parents":[2147483647,0,0,1,1,2,2,3,3,4,4,5,5,6,6,7,7,8,8,9,9,10,10,11,11,12,12,13,13,14,14,16,16,17,17,18,18,19,19,20,20,21,21,22,22,23,23,24,24,25,25,26,26,27,27,28,28,35,35,36,36,37,37,38,38,39,39,40,40,41,41,43,43,44,44,45,45,46,46,48,48,49,49,50,50,51,51,53,53,54,54,55,55],"right_children":[2,4,6,8,10,12,14,16,18,20,22,24,26,28,30,-1,32,34,36,38,40,42,44,46,48,50,52,54,56,-1,-1,-1,-1,-1,-1,58,60,62,64,66,68,70,-1,72,74,76,78,-1,80,82,84,86,-1,88,90,92,-1,-1,-1,-1,-1,-1,-1,-1,-1,-1,-1,-1,-1,-1,-1,-1,-1,-1,-1,-1,-1,-1,-1,-1,-1,-1,-1,-1,-1,-1,-1,-1,-1,-1,-1,-1,-1],"split_conditions":[1.21E1,2.4E-1,4.6E1,3.3E-1,5.3E-1,2E1,4.2E-2,1.2E0,8.7E0,5.3E-1,3.6E1,4E-1,1.29E2,1.305E1,6E0,-2.9613115E-2,2.65E-1,4.7E-1,1.55E1,8.2E-1,1.04E-1,3.3E1,1.28E1,2.35E-1,4.2E-1,3.4E-1,5.9E-2,9.8945E-1,5E0,-2.058991E-1,-5.3911332E-2,-1.14361756E-1,-2.1882236E-1,-2.3497836E-1,-3.6857344E-2,9.9772E-1,3.11E0,1.4E1,5.6E-2,1.001E0,3.11E0,5.1E-1,-3.5457596E-1,5.3E-2,5.1E-2,1.1E1,1.25E1,-3.0633143E-1,7.5E-1,1.18E2,6.3E0,1.275E1,1.9872023E-1,2.65E-1,2.97E0,3.95E-1,-1.2278059E-1,-3.1036898E-2,-1.612801E-1,-6.709906E-2,7.272291E-2,-3.8414173E-2,6.322921E-3,1.2613069E-1,-1.4988357E-1,-6.1236832E-2,1.6223806E-1,-2.4662571E-2,1.10297725E-1,-6.164756E-2,-1.840807E-1,1.07358105E-1,-5.6220297E-2,-8.199244E-2,-3.6839605E-3,-4.408125E-2,1.2188365E-1,-4.5078255E-2,1.4645847E-2,1.1150022E-1,-1.9365914E-1,6.1847556E-2,2.5901034E-1,-6.0230806E-3,6.008606E-2,-3.8519148E-2,4.9852613E-2,-6.1215285E-2,9.59752E-2,-5.9104014E-2,2.1617919E-1,8.0014735E-2,-8.382469E-2],"split_indices":[10,2,5,9,1,5,4,3,10,2,5,2,6,10,0,0,1,9,3,9,4,5,3,1,9,9,4,7,3,0,0,0,0,0,0,7,8,5,4,7,8,9,0,4,4,5,10,0,9,6,0,10,0,1,8,1,0,0,0,0,0,0,0,0,0,0,0,0,0,0,0,0,0,0,0,0,0,0,0,0,0,0,0,0,0,0,0,0,0,0,0,0,0],"split_type":[0,0,0,0,0,0,0,0,0,0,0,0,0,0,0,0,0,0,0,0,0,0,0,0,0,0,0,0,0,0,0,0,0,0,0,0,0,0,0,0,0,0,0,0,0,0,0,0,0,0,0,0,0,0,0,0,0,0,0,0,0,0,0,0,0,0,0,0,0,0,0,0,0,0,0,0,0,0,0,0,0,0,0,0,0,0,0,0,0,0,0,0,0],"sum_hessian":[3.918E3,3.358E3,5.6E2,4.65E2,2.893E3,5.13E2,4.7E1,2E1,4.45E2,2.854E3,3.9E1,1.14E2,3.99E2,4.5E1,2E0,5E0,1.5E1,5E0,4.4E2,2.66E3,1.94E2,2.7E1,1.2E1,9.9E1,1.5E1,3.07E2,9.2E1,3.8E1,7E0,1E0,1E0,6E0,9E0,4E0,1E0,4.08E2,3.2E1,2.627E3,3.3E1,1.71E2,2.3E1,2.2E1,5E0,7E0,5E0,1.3E1,8.6E1,5E0,1E1,3E1,2.77E2,9E1,2E0,8E0,3E1,4E0,3E0,3.91E2,1.7E1,1E1,2.2E1,1.81E2,2.446E3,3.1E1,2E0,1.68E2,3E0,1.3E1,1E1,1.6E1,6E0,5E0,2E0,2E0,3E0,3E0,1E1,2.6E1,6E1,7E0,3E0,2.2E1,8E0,9E1,1.87E2,6.1E1,2.9E1,5E0,3E0,1E0,2.9E1,3E0,1E0],"tree_param":{"num_deleted":"0","num_feature":"11","num_nodes":"93","size_leaf_vector":"1"}},{"base_weights":[-7.502865E-4,4.7684558E-2,-3.0999172E-2,-1.4796306E-1,6.304476E-2,5.896246E-2,-5.142716E-2,1.3448834E-1,-1.7469253E-1,-2.687341E-1,7.326706E-2,3.1167004E-1,2.7780423E-2,-7.922829E-1,-4.951391E-2,-8.7390505E-2,-3.569971E-1,-3.420755E-1,2.2832687E-1,-2.0079494E-2,1.1398543E-1,3.464693E-1,-2.038042E-1,6.0553306E-1,1.4410719E-2,-3.7207043E-1,-2.4071028E-2,-4.461752E-2,-3.3452657E-1,-1.374261E-1,2.8368765E-1,-3.0587244E-1,-3.0661654E-1,-1.5833159E-1,-5.7334363E-1,9.823108E-3,7.826844E-2,-6.3774094E-2,1.2486803E-1,3.9188156E-1,1.0286648E-1,2.9747915E-1,2.9464856E-1,2.0262022E-1,6.9887643E-3,-5.6189302E-2,8.7877356E-2,-5.918431E-2,6.390588E-2,1.0778259E-2,-6.601534E-1,-1.1812511E-2,-1.2358799E-1,1.3488331E-1,-5.940886E-2,-1.0277748E-1,5.265479E-2,4.9976718E-2,-1.0676993E-1,-1.869247E-1,2.5910355E-2,-1.8626264E-3,-8.142598E-2,1.4316852E-1,5.9532262E-3,-9.773796E-2,1.9295187E-1,-1.8930865E-3,3.871611E-2,6.1838713E-2,1.3235596E-1,-8.807248E-3,-1.6891739E-1,-6.445868E-2,3.8495798E-2,-3.9294936E-2,-1.0872873E-2,1.0354198E-1,-1.0718733E-2,3.8206406E-2,-2.7816668E-1,-2.5665814E-1,-6.045313E-3],"categories":[],"categories_nodes":[],"categories_segments":[],"categories_sizes":[],"default_left":[0,0,0,0,0,0,0,0,0,0,0,0,0,0,0,0,0,0,0,0,0,0,0,0,0,0,0,0,0,0,0,0,0,0,0,0,0,0,0,0,0,0,0,0,0,0,0,0,0,0,0,0,0,0,0,0,0,0,0,0,0,0,0,0,0,0,0,0,0,0,0,0,0,0,0,0,0,0,0,0,0,0,0],"id":7,"left_children":[1,3,5,7,9,11,13,-1,15,17,19,21,23,25,27,29,31,33,35,37,39,41,-1,43,45,-1,-1,47,49,51,53,55,-1,57,59,-1,-1,61,63,65,67,69,-1,-1,-1,71,73,75,77,79,81,-1,-1,-1,-1,-1,-1,-1,-1,-1,-1,-1,-1,-1,-1,-1,-1,-1,-1,-1,-1,-1,-1,-1,-1,-1,-1,-1,-1,-1,-1,-1,-1],"loss_changes":[5.7432055E0,4.538143E0,4.4374876E0,1.8314555E0,4.7610683E0,3.5136738E0,2.7488766E0,0E0,1.6558506E0,1.6092215E0,5.1601377E0,1.92522E0,3.073302E0,1.4952993E0,2.7245064E0,1.3943852E0,8.4341097E-1,1.4815035E0,2.9675752E-2,2.6236672E0,2.8796558E0,1.2026758E0,0E0,3.5038185E-1,2.0329554E0,0E0,0E0,3.056379E0,3.717652E0,1.733471E0,8.0838954E-1,6.434431E-1,0E0,1.4715564E0,5.788245E-1,0E0,0E0,3.7994332E0,3.5431314E0,6.701977E0,2.602538E0,5.129318E-1,0E0,0E0,0E0,2.7035105E0,2.3783007E0,2.8003764E0,6.429084E0,1.9770147E0,2.1084337E0,0E0,0E0,0E0,0E0,0E0,0E0,0E0,0E0,0E0,0E0,0E0,0E0,0E0,0E0,0E0,0E0,0E0,0E0,0E0,0E0,0E0,0E0,0E0,0E0,0E0,0E0,0E0,0E0,0E0,0E0,0E0,0E0],"parents":[2147483647,0,0,1,1,2,2,3,3,4,4,5,5,6,6,8,8,9,9,10,10,11,11,12,12,13,13,14,14,15,15,16,16,17,17,18,18,19,19,20,20,21,21,23,23,24,24,27,27,28,28,29,29,30,30,31,31,33,33,34,34,37,37,38,38,39,39,40,40,41,41,45,45,46,46,47,47,48,48,49,49,50,50],"right_children":[2,4,6,8,10,12,14,-1,16,18,20,22,24,26,28,30,32,34,36,38,40,42,-1,44,46,-1,-1,48,50,52,54,56,-1,58,60,-1,-1,62,64,66,68,70,-1,-1,-1,72,74,76,78,80,82,-1,-1,-1,-1,-1,-1,-1,-1,-1,-1,-1,-1,-1,-1,-1,-1,-1,-1,-1,-1,-1,-1,-1,-1,-1,-1,-1,-1,-1,-1,-1,-1],"split_conditions":[4E-2,2.98E0,2E-1,9E0,9.2E0,9.1E0,8E-1,1.3448834E-1,7.4E0,1.66E1,2.4E1,3.44E0,9.8984E-1,8.6E0,3.53E0,9.1E0,1.02E1,3.7E-2,2.1E-1,5.9E0,1.55E-1,6.8E-1,-2.038042E-1,6.5E-1,4.9E-1,-3.7207043E-1,-2.4071028E-2,3.33E0,2.45E-1,9.924E-1,9.9445E-1,2.97E0,-3.0661654E-1,3.14E0,6.2E1,9.823108E-3,7.826844E-2,9.9241E-1,2.25E-1,3.3E-2,1.6E0,5.7E-2,2.9464856E-1,2.0262022E-1,6.9887643E-3,6.05E1,2E1,2.3E0,9.9306E-1,1.895E2,3.75E0,-1.1812511E-2,-1.2358799E-1,1.3488331E-1,-5.940886E-2,-1.0277748E-1,5.265479E-2,4.9976718E-2,-1.0676993E-1,-1.869247E-1,2.5910355E-2,-1.8626264E-3,-8.142598E-2,1.4316852E-1,5.9532262E-3,-9.773796E-2,1.9295187E-1,-1.8930865E-3,3.871611E-2,6.1838713E-2,1.3235596E-1,-8.807248E-3,-1.6891739E-1,-6.445868E-2,3.8495798E-2,-3.9294936E-2,-1.0872873E-2,1.0354198E-1,-1.0718733E-2,3.8206406E-2,-2.7816668E-1,-2.5665814E-1,-6.045313E-3],"split_indices":[4,8,1,10,10,10,3,0,3,3,5,8,7,0,8,0,0,4,2,3,1,9,0,9,9,0,0,8,1,7,7,8,0,8,5,0,0,7,1,4,3,4,0,0,0,5,5,3,7,6,8,0,0,0,0,0,0,0,0,0,0,0,0,0,0,0,0,0,0,0,0,0,0,0,0,0,0,0,0,0,0,0,0],"split_type":[0,0,0,0,0,0,0,0,0,0,0,0,0,0,0,0,0,0,0,0,0,0,0,0,0,0,0,0,0,0,0,0,0,0,0,0,0,0,0,0,0,0,0,0,0,0,0,0,0,0,0,0,0,0,0,0,0,0,0,0,0,0,0,0,0,0,0,0,0,0,0,0,0,0,0,0,0,0,0,0,0,0,0],"sum_hessian":[3.918E3,1.506E3,2.412E3,1.09E2,1.397E3,4.46E2,1.966E3,4E0,1.05E2,4.1E1,1.356E3,4.8E1,3.98E2,4E0,1.962E3,7.2E1,3.3E1,3.6E1,5E0,4.12E2,9.44E2,4.7E1,1E0,8E0,3.9E2,2E0,2E0,1.93E3,3.2E1,6.4E1,8E0,3.2E1,1E0,2.1E1,1.5E1,1E0,4E0,3.17E2,9.5E1,3.5E1,9.09E2,4.5E1,2E0,7E0,1E0,1.99E2,1.91E2,1.702E3,2.28E2,1.6E1,1.6E1,4.8E1,1.6E1,6E0,2E0,3E1,2E0,8E0,1.3E1,1.4E1,1E0,2.49E2,6.8E1,2.1E1,7.4E1,9E0,2.6E1,1.76E2,7.33E2,2.9E1,1.6E1,1.9E2,9E0,2.2E1,1.69E2,4.11E2,1.291E3,5.9E1,1.69E2,1.5E1,1E0,1.2E1,4E0],"tree_param":{"num_deleted":"0","num_feature":"11","num_nodes":"83","size_leaf_vector":"1"}},{"base_weights":[-7.2411227E-4,-6.259223E-2,1.4669237E-2,-2.6804253E-1,-4.0064193E-2,4.3136995E-2,-3.0750135E-2,-4.1689564E-2,-3.2673034E-1,-1.0724934E-1,1.0257537E-2,6.686074E-2,-2.9268598E-2,-7.081763E-2,1.00141816E-1,-3.175375E-1,6.7612685E-2,-1.6368684E-1,-4.7923416E-1,-7.681128E-2,-2.7075776E-1,-4.040506E-2,1.8746266E-1,-3.602865E-1,7.246585E-2,-1.0667676E-1,1.7385633E-1,-6.061749E-2,-3.8457978E-1,3.958765E-1,5.0038274E-2,1.1543584E-2,-1.2484836E-1,-5.350561E-2,3.5350525E-1,-7.3263764E-2,-4.1449523E-1,-2.6927438E-1,-7.492343E-1,3.347019E-1,-9.490003E-2,-5.695286E-2,-5.111291E-1,6.9233656E-2,-1.2090607E-1,2.0909595E-1,-2.6068527E-1,-2.5450748E-1,-3.3964634E-1,1.0826999E-1,3.327288E-2,-9.388397E-2,-9.6036804E-1,2.549987E-1,-4.7605407E-1,-1.5120946E-1,-2.0660043E-2,-4.368939E-1,-4.6093177E-2,-2.034172E-2,5.8984715E-1,-3.9846292E-1,7.7003546E-2,-5.6887258E-2,9.576028E-3,2.9184652E-2,1.2194567E-1,2.4614193E-2,-8.96712E-2,-1.6237365E-1,-6.8489076E-3,1.437245E-1,-1.01239614E-1,-2.5412524E-1,-4.2212106E-2,-3.8692046E-2,1.854252E-1,-3.6326982E-2,2.9311096E-2,-1.2803285E-1,6.0258064E-2,-1.6170815E-1,1.1209488E-2,-8.015461E-3,6.631686E-2,-1.5150953E-2,-8.2323715E-2,3.232934E-2,1.245094E-1,-1.03511326E-1,1.4963609E-2,1.4924004E-2,4.551196E-2,1.2114752E-1,7.320209E-3,-3.7501544E-2,5.7514146E-2,-3.3909267E-1,-4.209073E-2,4.6791784E-3,1.3109908E-1,6.3097194E-2,-1.7934884E-1,-2.4687732E-2,-7.147258E-2,-2.389585E-2,2.0622399E-2,-3.4154285E-2,-1.4273123E-1,7.8012473E-3,-3.0847836E-2,-7.095826E-2,9.2198186E-2,2.3338957E-1,3.188057E-2,-2.3613274E-3,-2.363791E-1,2.9020693E-2,-1.2614092E-1],"categories":[],"categories_nodes":[],"categories_segments":[],"categories_sizes":[],"default_left":[0,0,0,0,0,0,0,0,0,0,0,0,0,0,0,0,0,0,0,0,0,0,0,0,0,0,0,0,0,0,0,0,0,0,0,0,0,0,0,0,0,0,0,0,0,0,0,0,0,0,0,0,0,0,0,0,0,0,0,0,0,0,0,0,0,0,0,0,0,0,0,0,0,0,0,0,0,0,0,0,0,0,0,0,0,0,0,0,0,0,0,0,0,0,0,0,0,0,0,0,0,0,0,0,0,0,0,0,0,0,0,0,0,0,0,0,0,0,0],"id":8,"left_children":[1,3,5,7,9,11,13,15,17,19,21,23,25,27,29,31,33,35,37,39,41,43,45,47,49,51,53,55,57,59,61,-1,-1,63,65,67,69,71,73,75,77,79,81,83,85,87,-1,89,-1,91,93,95,97,99,101,103,105,107,109,111,113,115,117,-1,-1,-1,-1,-1,-1,-1,-1,-1,-1,-1,-1,-1,-1,-1,-1,-1,-1,-1,-1,-1,-1,-1,-1,-1,-1,-1,-1,-1,-1,-1,-1,-1,-1,-1,-1,-1,-1,-1,-1,-1,-1,-1,-1,-1,-1,-1,-1,-1,-1,-1,-1,-1,-1,-1,-1],"loss_changes":[3.733207E0,3.604035E0,4.0600147E0,1.0092592E0,2.3846154E0,3.3171794E0,6.3529515E0,5.340331E-1,1.4383059E0,1.4822206E0,3.634554E0,3.507285E0,7.5186687E0,2.9434733E0,4.18832E0,1.9157147E-1,4.6906322E-1,6.726773E-1,1.5556154E0,1.9373659E0,2.3863401E0,2.7885695E0,2.2385287E0,1.2631595E0,2.0114946E0,3.688535E0,7.0824485E0,3.2510974E0,4.933834E-1,3.3220978E0,2.9816086E0,0E0,0E0,1.2233307E-1,1.4755309E-2,8.6559045E-1,3.8479316E-1,1.131265E0,6.5488434E-1,1.5250868E0,1.252722E0,2.5646994E0,3.567829E-1,1.9579717E0,1.9530675E0,1.8125031E0,0E0,5.132208E-1,0E0,1.8989906E0,2.2487326E0,3.063708E0,5.3822803E-1,5.134518E0,1.3794973E0,1.6298494E0,3.3017483E0,2.5981045E-1,2.3125375E-2,1.0644146E0,2.4644823E0,2.1235168E0,2.3082135E0,0E0,0E0,0E0,0E0,0E0,0E0,0E0,0E0,0E0,0E0,0E0,0E0,0E0,0E0,0E0,0E0,0E0,0E0,0E0,0E0,0E0,0E0,0E0,0E0,0E0,0E0,0E0,0E0,0E0,0E0,0E0,0E0,0E0,0E0,0E0,0E0,0E0,0E0,0E0,0E0,0E0,0E0,0E0,0E0,0E0,0E0,0E0,0E0,0E0,0E0,0E0,0E0,0E0,0E0,0E0,0E0],"parents":[2147483647,0,0,1,1,2,2,3,3,4,4,5,5,6,6,7,7,8,8,9,9,10,10,11,11,12,12,13,13,14,14,15,15,16,16,17,17,18,18,19,19,20,20,21,21,22,22,23,23,24,24,25,25,26,26,27,27,28,28,29,29,30,30,33,33,34,34,35,35,36,36,37,37,38,38,39,39,40,40,41,41,42,42,43,43,44,44,45,45,47,47,49,49,50,50,51,51,52,52,53,53,54,54,55,55,56,56,57,57,58,58,59,59,60,60,61,61,62,62],"right_children":[2,4,6,8,10,12,14,16,18,20,22,24,26,28,30,32,34,36,38,40,42,44,46,48,50,52,54,56,58,60,62,-1,-1,64,66,68,70,72,74,76,78,80,82,84,86,88,-1,90,-1,92,94,96,98,100,102,104,106,108,110,112,114,116,118,-1,-1,-1,-1,-1,-1,-1,-1,-1,-1,-1,-1,-1,-1,-1,-1,-1,-1,-1,-1,-1,-1,-1,-1,-1,-1,-1,-1,-1,-1,-1,-1,-1,-1,-1,-1,-1,-1,-1,-1,-1,-1,-1,-1,-1,-1,-1,-1,-1,-1,-1,-1,-1,-1,-1,-1],"split_conditions":[2.6E-1,8.7E1,3.7E-1,2.45E-1,9.733334E0,1.62E2,3.25E0,1.5E1,1.6E-1,3.29E0,9.9445E-1,9E-1,9.9772E-1,1.785E1,4.1E-1,1.3E-1,1.7E0,3.37E0,1.8E1,1.2E0,9.9644E-1,9.918E-1,7.3E-1,4.4E-2,4E-2,1.5E1,6.1E-1,1.21E2,5.7E-1,2.3E1,9.908E-1,1.1543584E-2,-1.2484836E-1,1.2E0,6.9E0,4.85E-1,6.1E-1,9.5E0,2.5E-1,4.3E-2,1.66E1,1.36E2,3.54E0,1.24E2,1.08E1,3.25E-1,-2.6068527E-1,4.1E-2,-3.3964634E-1,2.8E1,9.8954E-1,6.8E1,2.65E-1,1.84E2,1.69E2,9.9276E-1,9.8E0,4E-1,6.6E0,3.8E-1,4.6E-2,2.1E0,3.56E0,-5.6887258E-2,9.576028E-3,2.9184652E-2,1.2194567E-1,2.4614193E-2,-8.96712E-2,-1.6237365E-1,-6.8489076E-3,1.437245E-1,-1.01239614E-1,-2.5412524E-1,-4.2212106E-2,-3.8692046E-2,1.854252E-1,-3.6326982E-2,2.9311096E-2,-1.2803285E-1,6.0258064E-2,-1.6170815E-1,1.1209488E-2,-8.015461E-3,6.631686E-2,-1.5150953E-2,-8.2323715E-2,3.232934E-2,1.245094E-1,-1.03511326E-1,1.4963609E-2,1.4924004E-2,4.551196E-2,1.2114752E-1,7.320209E-3,-3.7501544E-2,5.7514146E-2,-3.3909267E-1,-4.209073E-2,4.6791784E-3,1.3109908E-1,6.3097194E-2,-1.7934884E-1,-2.4687732E-2,-7.147258E-2,-2.389585E-2,2.0622399E-2,-3.4154285E-2,-1.4273123E-1,7.8012473E-3,-3.0847836E-2,-7.095826E-2,9.2198186E-2,2.3338957E-1,3.188057E-2,-2.3613274E-3,-2.363791E-1,2.9020693E-2,-1.2614092E-1],"split_indices":[2,6,2,1,10,6,8,5,2,8,7,3,7,3,9,1,3,8,5,3,7,7,9,4,4,3,9,6,9,5,7,0,0,3,0,1,1,10,2,4,3,6,8,6,10,1,0,4,0,5,7,5,1,6,6,7,10,2,0,9,4,3,8,0,0,0,0,0,0,0,0,0,0,0,0,0,0,0,0,0,0,0,0,0,0,0,0,0,0,0,0,0,0,0,0,0,0,0,0,0,0,0,0,0,0,0,0,0,0,0,0,0,0,0,0,0,0,0,0],"split_type":[0,0,0,0,0,0,0,0,0,0,0,0,0,0,0,0,0,0,0,0,0,0,0,0,0,0,0,0,0,0,0,0,0,0,0,0,0,0,0,0,0,0,0,0,0,0,0,0,0,0,0,0,0,0,0,0,0,0,0,0,0,0,0,0,0,0,0,0,0,0,0,0,0,0,0,0,0,0,0,0,0,0,0,0,0,0,0,0,0,0,0,0,0,0,0,0,0,0,0,0,0,0,0,0,0,0,0,0,0,0,0,0,0,0,0,0,0,0,0],"sum_hessian":[3.918E3,7.8E2,3.138E3,7.6E1,7.04E2,1.929E3,1.209E3,1.6E1,6E1,3.01E2,4.03E2,1.453E3,4.76E2,9.26E2,2.83E2,4E0,1.2E1,3E1,3E1,2.55E2,4.6E1,3.14E2,8.9E1,1.8E1,1.435E3,3.45E2,1.31E2,8.98E2,2.8E1,4E1,2.43E2,1E0,3E0,9E0,3E0,2.3E1,7E0,1.8E1,1.2E1,1E1,2.45E2,2.5E1,2.1E1,1.33E2,1.81E2,8.8E1,1E0,1.7E1,1E0,7.49E2,6.86E2,3.41E2,4E0,1.17E2,1.4E1,2.74E2,6.24E2,2.4E1,4E0,1.3E1,2.7E1,1.3E1,2.3E2,3E0,6E0,1E0,2E0,1.4E1,9E0,5E0,2E0,1E0,1.7E1,1E1,2E0,4E0,6E0,2.16E2,2.9E1,1E1,1.5E1,2E1,1E0,8.2E1,5.1E1,1.25E2,5.6E1,6E1,2.8E1,1.3E1,4E0,3.2E2,4.29E2,1.5E1,6.71E2,3.08E2,3.3E1,3E0,1E0,5.1E1,6.6E1,2E0,1.2E1,1.54E2,1.2E2,3.76E2,2.48E2,3E0,2.1E1,2E0,2E0,8E0,5E0,1.9E1,8E0,7E0,6E0,2.22E2,8E0],"tree_param":{"num_deleted":"0","num_feature":"11","num_nodes":"119","size_leaf_vector":"1"}},{"base_weights":[-9.2767744E-4,3.2206037E-4,-8.160187E-1,-9.011128E-4,6.8315613E-1,-3.1301466E-1,-7.225833E-2,1.5657403E-1,-4.6964525E-3,6.516842E-2,2.9348856E-1,-1.7658511E-1,2.4570566E-1,-6.804425E-2,5.226452E-3,4.769021E-2,-5.1895934E-1,-1.4317931E-1,3.2455483E-1,-4.537031E-2,-2.743322E-1,2.078146E-2,-4.38322E-2,-1.16951615E-1,1.1096269E-1,-2.0742242E-1,-5.2097585E-2,4.3589465E-2,-1.233608E-1,-2.0642392E-2,1.15568586E-1,-1.7941928E-2,8.944969E-2,1.6800135E-2,-1.068801E-1,1.1726412E-2,-1.37923E-2,2.7284801E-2,-2.267278E-2],"categories":[],"categories_nodes":[],"categories_segments":[],"categories_sizes":[],"default_left":[0,0,0,0,0,0,0,0,0,0,0,0,0,0,0,0,0,0,0,0,0,0,0,0,0,0,0,0,0,0,0,0,0,0,0,0,0,0,0],"id":9,"left_children":[1,3,5,7,9,-1,-1,11,13,-1,-1,15,17,19,21,23,25,27,29,31,33,35,37,-1,-1,-1,-1,-1,-1,-1,-1,-1,-1,-1,-1,-1,-1,-1,-1],"loss_changes":[3.9923525E0,3.2696836E0,5.333092E-1,2.3364363E0,7.50082E-1,0E0,0E0,2.775329E0,2.3996994E0,0E0,0E0,1.5604708E0,2.2848873E0,2.4057486E0,2.5199294E0,1.9767424E0,3.5630465E-1,1.0648901E0,1.4823818E0,2.3338356E0,1.4003041E0,3.0655262E0,3.4082563E0,0E0,0E0,0E0,0E0,0E0,0E0,0E0,0E0,0E0,0E0,0E0,0E0,0E0,0E0,0E0,0E0],"parents":[2147483647,0,0,1,1,2,2,3,3,4,4,7,7,8,8,11,11,12,12,13,13,14,14,15,15,16,16,17,17,18,18,19,19,20,20,21,21,22,22],"right_children":[2,4,6,8,10,-1,-1,12,14,-1,-1,16,18,20,22,24,26,28,30,32,34,36,38,-1,-1,-1,-1,-1,-1,-1,-1,-1,-1,-1,-1,-1,-1,-1,-1],"split_conditions":[1.185E2,1.05E2,3E-1,1.4E-1,6.3E0,-3.1301466E-1,-7.225833E-2,9.7E0,1.4E0,6.516842E-2,2.9348856E-1,8.9E0,6E0,9.936E-1,5.1E-2,2.9E-1,1.07E1,1E2,3.06E0,9.934E-1,9.2E0,1.71E2,2.05E-1,-1.16951615E-1,1.1096269E-1,-2.0742242E-1,-5.2097585E-2,4.3589465E-2,-1.233608E-1,-2.0642392E-2,1.15568586E-1,-1.7941928E-2,8.944969E-2,1.6800135E-2,-1.068801E-1,1.1726412E-2,-1.37923E-2,2.7284801E-2,-2.267278E-2],"split_indices":[5,5,2,1,0,0,0,10,3,0,0,3,0,7,4,2,3,6,8,7,10,6,1,0,0,0,0,0,0,0,0,0,0,0,0,0,0,0,0],"split_type":[0,0,0,0,0,0,0,0,0,0,0,0,0,0,0,0,0,0,0,0,0,0,0,0,0,0,0,0,0,0,0,0,0,0,0,0,0,0,0],"sum_hessian":[3.918E3,3.913E3,5E0,3.907E3,6E0,3E0,2E0,9.1E1,3.816E3,3E0,3E0,1.9E1,7.2E1,5.16E2,3.3E3,1.2E1,7E0,1.2E1,6E1,4.66E2,5E1,2.506E3,7.94E2,5E0,7E0,4E0,3E0,6E0,6E0,8E0,5.2E1,4.48E2,1.8E1,1E1,4E1,1.967E3,5.39E2,1.51E2,6.43E2],"tree_param":{"num_deleted":"0","num_feature":"11","num_nodes":"39","size_leaf_vector":"1"}},{"base_weights":[-7.241038E-4,1.6421591E-3,-2.633586E-1,-1.4815981E-2,3.7864983E-2,1.8397415E-1,-3.817623E-1,-4.427098E-1,-1.1747104E-2,-1.1796454E-2,9.530973E-2,-5.5652406E-2,2.6325846E-1,-1.0649739E-1,-6.1322534E-1,-5.691543E-1,2.5165748E-2,-1.503477E-1,-5.467255E-3,-9.9257655E-2,5.3480204E-2,1.7712082E-1,3.615507E-2,8.723638E-2,1.4712239E-2,-1.9305284E-1,8.256708E-2,-9.403485E-1,-4.0878525E-1,-2.3541361E-1,-8.3175075E-1,1.01152256E-1,-1.371299E-1,-1.9746923E-1,8.3353065E-2,-2.7796775E-1,-3.0851678E-3,1.0312867E-1,-1.3455583E-1,9.185912E-2,-1.0335133E-1,5.2005433E-2,2.3738421E-1,5.5372953E-2,-2.0957865E-1,9.874654E-2,-3.0129114E-1,-3.1630751E-1,-7.264638E-2,6.062007E-3,-4.5370513E-1,-8.209108E-2,-2.4148751E-2,-3.3758856E-2,-2.7552631E-1,-4.735489E-2,-1.1245608E-2,-9.63752E-2,-3.214222E-2,-7.2079105E-3,2.099536E-1,-6.0122434E-2,-2.8600812E-1,1.8256482E-2,-3.507496E-3,7.299626E-2,-9.422354E-2,1.2342797E-2,-5.982511E-2,2.0426491E-2,1.12864695E-1,-5.163345E-2,1.0617747E-1,-8.080578E-3,1.3463426E-1,4.10233E-2,1.2034828E-1,-7.2721876E-2,2.2137566E-2,1.113127E-2,-1.5134583E-1,-1.7876626E-3,6.192942E-2,-9.67133E-3,-9.926794E-2,-5.6670215E-2,-1.6206208E-1],"categories":[],"categories_nodes":[],"categories_segments":[],"categories_sizes":[],"default_left":[0,0,0,0,0,0,0,0,0,0,0,0,0,0,0,0,0,0,0,0,0,0,0,0,0,0,0,0,0,0,0,0,0,0,0,0,0,0,0,0,0,0,0,0,0,0,0,0,0,0,0,0,0,0,0,0,0,0,0,0,0,0,0,0,0,0,0,0,0,0,0,0,0,0,0,0,0,0,0,0,0,0,0,0,0,0,0],"id":10,"left_children":[1,3,5,7,9,11,13,15,17,19,21,-1,23,25,27,29,31,33,35,37,39,41,43,-1,-1,45,-1,47,49,51,53,-1,55,57,59,61,63,65,67,69,71,73,75,77,79,81,83,-1,-1,-1,85,-1,-1,-1,-1,-1,-1,-1,-1,-1,-1,-1,-1,-1,-1,-1,-1,-1,-1,-1,-1,-1,-1,-1,-1,-1,-1,-1,-1,-1,-1,-1,-1,-1,-1,-1,-1],"loss_changes":[2.435943E0,2.3166437E0,1.9240394E0,3.503545E0,3.4644089E0,2.8318968E-1,1.7186756E0,1.1383688E0,2.309195E0,3.7276902E0,2.7182388E0,0E0,2.7020603E-2,5.156931E-1,6.187558E-1,1.1187816E0,2.994247E-1,1.2828789E0,1.6479071E0,2.0070162E0,2.2606087E0,1.767065E0,1.5605792E0,0E0,0E0,4.0875787E-1,0E0,1.4268684E-1,2.2114074E-1,2.5345087E-2,3.9533138E-1,0E0,2.3413822E-3,1.0389559E0,1.3407865E0,9.613699E-1,1.386916E0,2.5329673E0,2.7204561E0,2.0089598E0,2.3876514E0,2.4551826E0,2.565857E0,1.690744E0,1.7646855E0,4.6330847E-2,6.101328E-2,0E0,0E0,0E0,1.2701488E-1,0E0,0E0,0E0,0E0,0E0,0E0,0E0,0E0,0E0,0E0,0E0,0E0,0E0,0E0,0E0,0E0,0E0,0E0,0E0,0E0,0E0,0E0,0E0,0E0,0E0,0E0,0E0,0E0,0E0,0E0,0E0,0E0,0E0,0E0,0E0,0E0],"parents":[2147483647,0,0,1,1,2,2,3,3,4,4,5,5,6,6,7,7,8,8,9,9,10,10,12,12,13,13,14,14,15,15,16,16,17,17,18,18,19,19,20,20,21,21,22,22,25,25,27,27,28,28,29,29,30,30,32,32,33,33,34,34,35,35,36,36,37,37,38,38,39,39,40,40,41,41,42,42,43,43,44,44,45,45,46,46,50,50],"right_children":[2,4,6,8,10,12,14,16,18,20,22,-1,24,26,28,30,32,34,36,38,40,42,44,-1,-1,46,-1,48,50,52,54,-1,56,58,60,62,64,66,68,70,72,74,76,78,80,82,84,-1,-1,-1,86,-1,-1,-1,-1,-1,-1,-1,-1,-1,-1,-1,-1,-1,-1,-1,-1,-1,-1,-1,-1,-1,-1,-1,-1,-1,-1,-1,-1,-1,-1,-1,-1,-1,-1,-1,-1],"split_conditions":[9.3E0,5.3E-1,2.88E0,8.7E0,3.6E1,9.5E0,1.7E0,1.94E2,1.6E-1,3.19E0,1.53E2,-5.5652406E-2,2.45E-1,4.7E-2,3.9E-1,1.52E2,4.6E-2,4.9E-1,9E-1,9.4E0,1.58E2,6.4E0,6.1E-2,8.723638E-2,1.4712239E-2,4E-2,8.256708E-2,2.45E-1,3.5E-2,4.7E-1,2E-1,1.01152256E-1,6.15E0,3.19E0,3.41E0,4.4E-2,3.1E-2,6.2E-1,3.4E-2,1.49E2,2.19E2,1.49E2,3.22E0,1.57E2,4.85E1,2.75E-1,9.4E0,-3.1630751E-1,-7.264638E-2,6.062007E-3,9.533334E0,-8.209108E-2,-2.4148751E-2,-3.3758856E-2,-2.7552631E-1,-4.735489E-2,-1.1245608E-2,-9.63752E-2,-3.214222E-2,-7.2079105E-3,2.099536E-1,-6.0122434E-2,-2.8600812E-1,1.8256482E-2,-3.507496E-3,7.299626E-2,-9.422354E-2,1.2342797E-2,-5.982511E-2,2.0426491E-2,1.12864695E-1,-5.163345E-2,1.0617747E-1,-8.080578E-3,1.3463426E-1,4.10233E-2,1.2034828E-1,-7.2721876E-2,2.2137566E-2,1.113127E-2,-1.5134583E-1,-1.7876626E-3,6.192942E-2,-9.67133E-3,-9.926794E-2,-5.6670215E-2,-1.6206208E-1],"split_indices":[0,9,8,10,5,0,3,6,2,8,6,0,1,4,2,6,4,9,3,10,6,0,4,0,0,4,0,1,4,9,1,0,0,8,8,4,4,9,4,6,6,6,8,6,5,1,0,0,0,0,10,0,0,0,0,0,0,0,0,0,0,0,0,0,0,0,0,0,0,0,0,0,0,0,0,0,0,0,0,0,0,0,0,0,0,0,0],"split_type":[0,0,0,0,0,0,0,0,0,0,0,0,0,0,0,0,0,0,0,0,0,0,0,0,0,0,0,0,0,0,0,0,0,0,0,0,0,0,0,0,0,0,0,0,0,0,0,0,0,0,0,0,0,0,0,0,0,0,0,0,0,0,0,0,0,0,0,0,0,0,0,0,0,0,0,0,0,0,0,0,0,0,0,0,0,0,0],"sum_hessian":[3.918E3,3.884E3,3.4E1,2.671E3,1.213E3,7E0,2.7E1,1.8E1,2.653E3,6.51E2,5.62E2,1E0,6E0,1.3E1,1.4E1,1.4E1,4E0,1.14E2,2.539E3,2.78E2,3.73E2,2.35E2,3.27E2,5E0,1E0,1.1E1,2E0,4E0,1E1,7E0,7E0,1E0,3E0,9.5E1,1.9E1,2.1E1,2.518E3,4.1E1,2.37E2,3E2,7.3E1,7.7E1,1.58E2,3.04E2,2.3E1,3E0,8E0,3E0,1E0,1E0,9E0,5E0,2E0,1E0,6E0,2E0,1E0,3.9E1,5.6E1,1.7E1,2E0,2E1,1E0,2.98E2,2.22E3,3.1E1,1E1,6.4E1,1.73E2,2.78E2,2.2E1,6.4E1,9E0,6.5E1,1.2E1,9.9E1,5.9E1,1.7E1,2.87E2,1.3E1,1E1,2E0,1E0,1E0,7E0,3E0,6E0],"tree_param":{"num_deleted":"0","num_feature":"11","num_nodes":"87","size_leaf_vector":"1"}},{"base_weights":[-7.455161E-4,1.5631743E-4,-5.889173E-1,-7.7748357E-4,5.214618E-1,-2.2026058E-1,-5.966964E-2,2.3146681E-3,-1.2626451E-1,2.0601352E-1,2.1667385E-2,-2.0181863E-3,9.580346E-2,-2.2565453E-1,9.328931E-2,-5.431061E-2,9.597189E-3,3.4939957E-1,2.4533838E-2,-1.5636024E-1,-5.186743E-1,-9.783605E-2,3.1870657E-1,-4.348363E-2,-5.2790847E-3,-1.2098064E-2,6.86678E-3,2.057875E-1,6.987062E-2,1.7264275E-2,-1.16186984E-1,-6.060569E-2,3.942894E-2,-1.7969047E-1,-2.3440935E-2,-5.1101662E-2,5.4114856E-2,1.7135121E-1,-3.393221E-2],"categories":[],"categories_nodes":[],"categories_segments":[],"categories_sizes":[],"default_left":[0,0,0,0,0,0,0,0,0,0,0,0,0,0,0,0,0,0,0,0,0,0,0,0,0,0,0,0,0,0,0,0,0,0,0,0,0,0,0],"id":11,"left_children":[1,3,5,7,9,-1,-1,11,13,-1,-1,15,17,19,21,23,25,27,29,31,33,35,37,-1,-1,-1,-1,-1,-1,-1,-1,-1,-1,-1,-1,-1,-1,-1,-1],"loss_changes":[2.0788593E0,1.9057233E0,1.9394994E-1,1.5166938E0,4.7005737E-1,0E0,0E0,1.5455481E0,2.0722682E0,0E0,0E0,2.2156951E0,3.0458827E0,1.2386985E0,1.3236697E0,2.2036057E0,1.9817529E0,1.2909446E0,1.8305349E0,7.361181E-1,3.7766886E-1,3.7364435E-1,1.590849E0,0E0,0E0,0E0,0E0,0E0,0E0,0E0,0E0,0E0,0E0,0E0,0E0,0E0,0E0,0E0,0E0],"parents":[2147483647,0,0,1,1,2,2,3,3,4,4,7,7,8,8,11,11,12,12,13,13,14,14,15,15,16,16,17,17,18,18,19,19,20,20,21,21,22,22],"right_children":[2,4,6,8,10,-1,-1,12,14,-1,-1,16,18,20,22,24,26,28,30,32,34,36,38,-1,-1,-1,-1,-1,-1,-1,-1,-1,-1,-1,-1,-1,-1,-1,-1],"split_conditions":[1.185E2,1.05E2,3E-1,5.5E-1,1.12E1,-2.2026058E-1,-5.966964E-2,1.28E1,6.55E-1,2.0601352E-1,2.1667385E-2,6.2E0,5.9E0,5.9E-1,2.8E1,2.2E-1,3.06E0,3.23E0,4.5E-1,1.1E1,4.7E-1,7E0,6.95E-1,-4.348363E-2,-5.2790847E-3,-1.2098064E-2,6.86678E-3,2.057875E-1,6.987062E-2,1.7264275E-2,-1.16186984E-1,-6.060569E-2,3.942894E-2,-1.7969047E-1,-2.3440935E-2,-5.1101662E-2,5.4114856E-2,1.7135121E-1,-3.393221E-2],"split_indices":[5,5,2,1,3,0,0,10,1,0,0,0,0,9,5,1,8,8,2,3,2,0,1,0,0,0,0,0,0,0,0,0,0,0,0,0,0,0,0],"split_type":[0,0,0,0,0,0,0,0,0,0,0,0,0,0,0,0,0,0,0,0,0,0,0,0,0,0,0,0,0,0,0,0,0,0,0,0,0,0,0],"sum_hessian":[3.918E3,3.913E3,5E0,3.907E3,6E0,3E0,2E0,3.814E3,9.3E1,4E0,2E0,3.646E3,1.68E2,6.4E1,2.9E1,6.62E2,2.984E3,3.6E1,1.32E2,5.3E1,1.1E1,1.6E1,1.3E1,1.9E2,4.72E2,6.27E2,2.357E3,8E0,2.8E1,1.23E2,9E0,4.6E1,7E0,9E0,2E0,1.3E1,3E0,8E0,5E0],"tree_param":{"num_deleted":"0","num_feature":"11","num_nodes":"39","size_leaf_vector":"1"}},{"base_weights":[-5.2540604E-4,-3.270145E-2,9.781076E-3,-8.6482204E-2,-3.7164865E-3,7.462069E-2,-6.0256394E-3,-5.6485564E-2,-2.3707457E-1,-2.9290006E-2,7.5047486E-2,4.7141917E-2,2.2431414E-1,1.5002416E-1,-1.12201935E-2,-2.5993893E-1,-2.7190246E-2,-1.8223834E-1,-5.870604E-1,4.610528E-3,-1.298815E-1,-1.4560455E-1,1.4229898E-1,-5.226444E-1,5.7618074E-2,1.3580503E-2,3.6455175E-1,7.2308324E-2,3.6789888E-1,-9.632981E-2,-1.498517E-3,-2.8352695E-2,-3.514393E-1,1.1947414E-1,-9.770808E-2,-4.5483693E-2,-2.9198346E-1,-2.21725E-2,-6.6026765E-1,-2.2035485E-2,1.453714E-1,-9.1161296E-2,-4.9823618E-1,2.732119E-1,-2.0180504E-1,2.8633305E-1,5.3770035E-3,-6.0555186E-2,-2.2167282E-1,-4.354353E-2,1.0802104E-1,1.403205E-1,-2.9874316E-1,-1.3318378E-1,3.8818276E-1,3.0071324E-1,-2.9730622E-2,8.910612E-2,7.749497E-1,-4.885589E-2,-2.923877E-1,-2.1609742E-2,5.735531E-2,-6.079919E-2,9.820741E-2,-1.3454662E-1,-3.8722467E-2,8.400584E-2,-3.4851267E-3,-4.3063503E-2,3.9998718E-2,-7.1329154E-2,2.853243E-2,-1.0265129E-1,-8.1730844E-4,-2.1822058E-1,-4.8689462E-2,-2.9310787E-3,-1.01678416E-1,7.413626E-3,1.1961712E-1,-4.973088E-2,2.5027901E-2,-1.9289832E-1,1.4240184E-1,1.5435296E-2,-1.0085269E-1,1.3774416E-1,2.3193572E-2,9.102128E-3,-2.2386426E-1,1.1638618E-1,-2.1438414E-2,2.3441684E-2,1.0347221E-1,1.04707666E-1,-1.4973574E-2,-1.2805507E-1,5.5547714E-2,1.2562035E-1,-7.817731E-2,1.1359101E-1,-2.0003378E-2,-2.7011838E-2,1.0112324E-1,7.677516E-2,-4.4447903E-2,1.6696502E-2,2.6092663E-1,-3.4521237E-2,6.169125E-2,-2.4498157E-1,-2.5005585E-2,-2.1311674E-2,-4.8101373E-4,3.436495E-1,1.5315635E-2],"categories":[],"categories_nodes":[],"categories_segments":[],"categories_sizes":[],"default_left":[0,0,0,0,0,0,0,0,0,0,0,0,0,0,0,0,0,0,0,0,0,0,0,0,0,0,0,0,0,0,0,0,0,0,0,0,0,0,0,0,0,0,0,0,0,0,0,0,0,0,0,0,0,0,0,0,0,0,0,0,0,0,0,0,0,0,0,0,0,0,0,0,0,0,0,0,0,0,0,0,0,0,0,0,0,0,0,0,0,0,0,0,0,0,0,0,0,0,0,0,0,0,0,0,0,0,0,0,0,0,0,0,0,0,0,0,0],"id":12,"left_children":[1,3,5,7,9,11,13,15,17,19,21,23,25,27,29,31,33,35,37,39,41,43,45,47,49,51,53,55,57,59,61,63,65,67,69,71,73,-1,75,77,79,81,83,-1,85,87,89,-1,-1,91,93,95,97,-1,99,101,103,105,107,109,111,113,115,-1,-1,-1,-1,-1,-1,-1,-1,-1,-1,-1,-1,-1,-1,-1,-1,-1,-1,-1,-1,-1,-1,-1,-1,-1,-1,-1,-1,-1,-1,-1,-1,-1,-1,-1,-1,-1,-1,-1,-1,-1,-1,-1,-1,-1,-1,-1,-1,-1,-1,-1,-1,-1,-1],"loss_changes":[1.2999457E0,1.4821289E0,3.0433812E0,1.4908578E0,1.2490325E0,2.3834193E0,1.937418E0,1.6558366E0,9.4857E-1,1.5965283E0,2.2762747E0,2.9729145E0,2.654799E0,1.2771862E0,1.9128232E0,7.3169374E-1,2.545575E0,7.221191E-1,2.1416616E-1,1.3197045E0,1.6375872E0,2.320932E0,2.3058677E0,4.752388E-1,2.4776435E0,1.506524E0,1.2040353E0,1.3606999E0,2.2006035E0,2.191625E0,2.4584398E0,7.4839187E-1,4.8161983E-1,1.6869397E0,1.7770836E0,6.4437246E-1,3.9103198E-1,0E0,8.252859E-2,1.147169E0,1.7020288E0,1.4206035E0,1.8544135E0,0E0,1.2083521E0,2.0234456E0,1.1671399E0,0E0,0E0,1.9792539E0,2.2665353E0,1.0893869E0,7.6093936E-1,0E0,1.1596403E0,5.405576E-1,9.3734264E-1,5.5243784E-1,4.9713993E-1,3.259104E0,4.9726243E0,1.5307E0,3.5698133E0,0E0,0E0,0E0,0E0,0E0,0E0,0E0,0E0,0E0,0E0,0E0,0E0,0E0,0E0,0E0,0E0,0E0,0E0,0E0,0E0,0E0,0E0,0E0,0E0,0E0,0E0,0E0,0E0,0E0,0E0,0E0,0E0,0E0,0E0,0E0,0E0,0E0,0E0,0E0,0E0,0E0,0E0,0E0,0E0,0E0,0E0,0E0,0E0,0E0,0E0,0E0,0E0,0E0,0E0],"parents":[2147483647,0,0,1,1,2,2,3,3,4,4,5,5,6,6,7,7,8,8,9,9,10,10,11,11,12,12,13,13,14,14,15,15,16,16,17,17,18,18,19,19,20,20,21,21,22,22,23,23,24,24,25,25,26,26,27,27,28,28,29,29,30,30,31,31,32,32,33,33,34,34,35,35,36,36,38,38,39,39,40,40,41,41,42,42,44,44,45,45,46,46,49,49,50,50,51,51,52,52,54,54,55,55,56,56,57,57,58,58,59,59,60,60,61,61,62,62],"right_children":[2,4,6,8,10,12,14,16,18,20,22,24,26,28,30,32,34,36,38,40,42,44,46,48,50,52,54,56,58,60,62,64,66,68,70,72,74,-1,76,78,80,82,84,-1,86,88,90,-1,-1,92,94,96,98,-1,100,102,104,106,108,110,112,114,116,-1,-1,-1,-1,-1,-1,-1,-1,-1,-1,-1,-1,-1,-1,-1,-1,-1,-1,-1,-1,-1,-1,-1,-1,-1,-1,-1,-1,-1,-1,-1,-1,-1,-1,-1,-1,-1,-1,-1,-1,-1,-1,-1,-1,-1,-1,-1,-1,-1,-1,-1,-1,-1,-1],"split_conditions":[2.7E-1,9.6E0,3E-1,3.29E0,9.9445E-1,1.22E1,5.7E0,3.8E-1,5.6E1,5.5E0,2.6E1,9E0,6.9E0,3.46E0,6.2E0,1.08E2,4.6E-1,4.9E0,1E0,2.6E-1,7.3E0,9.9459E-1,4.15E1,3.8E-2,4.1E-1,9.9835E-1,3.6E-1,2.2E1,2.05E-1,9.9459E-1,3.25E0,8.9E1,9.959E-1,9.957E-1,5.5E-1,1.06E2,2.6E-1,-2.21725E-2,2.55E-1,6.8E1,9.92E-1,6.45E0,3.15E0,2.732119E-1,6.4E0,9.9582E-1,7.3E-1,-6.0555186E-2,-2.2167282E-1,1.35E-1,3.5E-1,1.355E1,2.85E-1,-1.3318378E-1,6.1E-1,3.8E-1,5.4E1,3.56E0,3.1E-1,4.9E0,2.45E-1,2.1E0,2E-2,-6.079919E-2,9.820741E-2,-1.3454662E-1,-3.8722467E-2,8.400584E-2,-3.4851267E-3,-4.3063503E-2,3.9998718E-2,-7.1329154E-2,2.853243E-2,-1.0265129E-1,-8.1730844E-4,-2.1822058E-1,-4.8689462E-2,-2.9310787E-3,-1.01678416E-1,7.413626E-3,1.1961712E-1,-4.973088E-2,2.5027901E-2,-1.9289832E-1,1.4240184E-1,1.5435296E-2,-1.0085269E-1,1.3774416E-1,2.3193572E-2,9.102128E-3,-2.2386426E-1,1.1638618E-1,-2.1438414E-2,2.3441684E-2,1.0347221E-1,1.04707666E-1,-1.4973574E-2,-1.2805507E-1,5.5547714E-2,1.2562035E-1,-7.817731E-2,1.1359101E-1,-2.0003378E-2,-2.7011838E-2,1.0112324E-1,7.677516E-2,-4.4447903E-2,1.6696502E-2,2.6092663E-1,-3.4521237E-2,6.169125E-2,-2.4498157E-1,-2.5005585E-2,-2.1311674E-2,-4.8101373E-4,3.436495E-1,1.5315635E-2],"split_indices":[2,10,2,8,7,3,0,9,5,3,5,5,0,8,0,6,9,3,3,2,0,7,5,4,9,7,9,5,1,7,8,6,7,7,9,6,2,0,1,5,7,0,8,0,0,7,9,0,0,1,1,3,1,0,9,2,5,8,2,3,1,3,4,0,0,0,0,0,0,0,0,0,0,0,0,0,0,0,0,0,0,0,0,0,0,0,0,0,0,0,0,0,0,0,0,0,0,0,0,0,0,0,0,0,0,0,0,0,0,0,0,0,0,0,0,0,0],"split_type":[0,0,0,0,0,0,0,0,0,0,0,0,0,0,0,0,0,0,0,0,0,0,0,0,0,0,0,0,0,0,0,0,0,0,0,0,0,0,0,0,0,0,0,0,0,0,0,0,0,0,0,0,0,0,0,0,0,0,0,0,0,0,0,0,0,0,0,0,0,0,0,0,0,0,0,0,0,0,0,0,0,0,0,0,0,0,0,0,0,0,0,0,0,0,0,0,0,0,0,0,0,0,0,0,0,0,0,0,0,0,0,0,0,0,0,0,0],"sum_hessian":[3.918E3,9.5E2,2.968E3,3.32E2,6.18E2,5.81E2,2.387E3,2.78E2,5.4E1,4.67E2,1.51E2,4.92E2,8.9E1,7.6E1,2.311E3,3.4E1,2.44E2,4.8E1,6E0,3.5E2,1.17E2,3.5E1,1.16E2,8E0,4.84E2,3.6E1,5.3E1,5.7E1,1.9E1,2.36E2,2.075E3,1E1,2.4E1,7.9E1,1.65E2,2.2E1,2.6E1,1E0,5E0,2.95E2,5.5E1,1.07E2,1E1,1E0,3.4E1,5.6E1,6E1,4E0,4E0,1.61E2,3.23E2,2.6E1,1E1,1E0,5.2E1,1.7E1,4E1,1.2E1,7E0,1.91E2,4.5E1,1.547E3,5.28E2,7E0,3E0,1.6E1,8E0,3.5E1,4.4E1,1.38E2,2.7E1,9E0,1.3E1,2.2E1,4E0,4E0,1E0,2.85E2,1E1,3.8E1,1.7E1,7.5E1,3.2E1,9E0,1E0,1.2E1,2.2E1,3E1,2.6E1,5.9E1,1E0,9E0,1.52E2,2.88E2,3.5E1,1.2E1,1.4E1,8E0,2E0,5E1,2E0,1.4E1,3E0,3.5E1,5E0,7E0,5E0,1E0,6E0,1.52E2,3.9E1,1.2E1,3.3E1,4.45E2,1.102E3,2E0,5.26E2],"tree_param":{"num_deleted":"0","num_feature":"11","num_nodes":"117","size_leaf_vector":"1"}},{"base_weights":[-3.599293E-4,1.2467718E-3,-1.7869346E-1,-1.8333682E-1,2.8273615E-3,1.3241667E-1,-2.6120016E-1,-5.02865E-2,-5.325503E-1,-1.1062425E-1,5.2008317E-3,-4.5417666E-2,1.9458826E-1,-4.3505874E-2,-4.4696817E-1,6.985576E-2,-2.0954536E-1,-5.612433E-3,-7.8635335E-1,-2.028667E-1,9.673412E-2,-8.5811555E-2,8.418653E-3,6.3308485E-2,1.4392233E-2,-1.1136981E-1,7.2735555E-2,-6.835674E-1,-2.987896E-1,-4.5505285E-2,1.1560686E-1,-2.5988826E-1,4.408257E-2,-3.5046816E-2,-2.6906848E-1,-2.8540957E-1,1.1669608E-1,4.107496E-1,-4.8202436E-2,-1.5165797E-1,2.4787845E-2,3.0763986E-2,-8.907152E-3,1.1786473E-1,-2.008774E-1,-2.2498411E-1,-6.2707335E-2,-1.6925335E-1,-1.449494E-1,2.0764716E-2,4.745817E-2,-2.0006634E-2,-9.994833E-2,-5.3929123E-3,-1.2693517E-1,-8.0468535E-2,1.0280607E-1,-1.0543407E-1,1.7095245E-1,-9.41655E-2,2.3438446E-2,-3.168793E-2,-1.4037578E-1,-4.798806E-2,2.8783727E-2,2.5786888E-3,2.7267916E-2,-2.7847517E-1,-2.402293E-3,8.711576E-3,5.7651475E-2,-8.009467E-2,-1.545024E-2,-1.4922059E-2,-6.930397E-2],"categories":[],"categories_nodes":[],"categories_segments":[],"categories_sizes":[],"default_left":[0,0,0,0,0,0,0,0,0,0,0,0,0,0,0,0,0,0,0,0,0,0,0,0,0,0,0,0,0,0,0,0,0,0,0,0,0,0,0,0,0,0,0,0,0,0,0,0,0,0,0,0,0,0,0,0,0,0,0,0,0,0,0,0,0,0,0,0,0,0,0,0,0,0,0],"id":13,"left_children":[1,3,5,7,9,11,13,15,17,19,21,-1,23,25,27,29,31,-1,33,35,37,39,41,-1,-1,43,-1,45,47,-1,49,51,-1,-1,-1,53,55,57,59,61,63,65,67,69,71,-1,-1,73,-1,-1,-1,-1,-1,-1,-1,-1,-1,-1,-1,-1,-1,-1,-1,-1,-1,-1,-1,-1,-1,-1,-1,-1,-1,-1,-1],"loss_changes":[1.1231288E0,1.1339707E0,9.329907E-1,1.5064977E0,1.038088E0,1.7061794E-1,1.1128918E0,4.929809E-1,1.1590211E0,1.5306766E0,1.1062753E0,0E0,6.7484677E-3,2.9868883E-1,3.2164145E-1,1.6957125E-1,2.3560116E-1,0E0,3.3928847E-1,1.4840758E0,1.1576072E0,9.432111E-1,1.4122132E0,0E0,0E0,2.6989514E-1,0E0,7.426739E-4,1.809386E-1,0E0,1.4734089E-2,1.1934459E-1,0E0,0E0,0E0,1.612808E0,1.1357913E0,1.1703434E0,6.2867224E-1,1.1297729E0,6.5951544E-1,2.1226282E0,1.6919672E0,2.0821169E-2,7.512084E-2,0E0,0E0,4.7558278E-2,0E0,0E0,0E0,0E0,0E0,0E0,0E0,0E0,0E0,0E0,0E0,0E0,0E0,0E0,0E0,0E0,0E0,0E0,0E0,0E0,0E0,0E0,0E0,0E0,0E0,0E0,0E0],"parents":[2147483647,0,0,1,1,2,2,3,3,4,4,5,5,6,6,7,7,8,8,9,9,10,10,12,12,13,13,14,14,15,15,16,16,18,18,19,19,20,20,21,21,22,22,25,25,27,27,28,28,30,30,31,31,35,35,36,36,37,37,38,38,39,39,40,40,41,41,42,42,43,43,44,44,47,47],"right_children":[2,4,6,8,10,12,14,16,18,20,22,-1,24,26,28,30,32,-1,34,36,38,40,42,-1,-1,44,-1,46,48,-1,50,52,-1,-1,-1,54,56,58,60,62,64,66,68,70,72,-1,-1,74,-1,-1,-1,-1,-1,-1,-1,-1,-1,-1,-1,-1,-1,-1,-1,-1,-1,-1,-1,-1,-1,-1,-1,-1,-1,-1,-1],"split_conditions":[9.3E0,2.89E0,2.88E0,7.8E0,8E0,9.5E0,1.7E0,2.7E1,9.3E1,4.7E-2,1.1E0,-4.5417666E-2,2.45E-1,4.7E-2,3.9E-1,1.5E1,4.7E-1,-5.612433E-3,2.1E1,5.2E0,9.9299E-1,4.5E-1,1.31E2,6.3308485E-2,1.4392233E-2,2.94E0,7.2735555E-2,2.45E-1,5E-1,-4.5505285E-2,6.9E0,2.7E0,4.408257E-2,-3.5046816E-2,-2.6906848E-1,1.2E0,6.9E0,5.9E0,1.6E0,3.37E0,9.9E0,1.18E2,1.5E-2,2.2E1,4.7E-1,-2.2498411E-1,-6.2707335E-2,2.3E1,-1.449494E-1,2.0764716E-2,4.745817E-2,-2.0006634E-2,-9.994833E-2,-5.3929123E-3,-1.2693517E-1,-8.0468535E-2,1.0280607E-1,-1.0543407E-1,1.7095245E-1,-9.41655E-2,2.3438446E-2,-3.168793E-2,-1.4037578E-1,-4.798806E-2,2.8783727E-2,2.5786888E-3,2.7267916E-2,-2.7847517E-1,-2.402293E-3,8.711576E-3,5.7651475E-2,-8.009467E-2,-1.545024E-2,-1.4922059E-2,-6.930397E-2],"split_indices":[0,8,8,0,5,0,3,5,6,4,3,0,1,4,2,5,2,0,5,3,7,9,6,0,0,8,0,1,2,0,0,3,0,0,0,3,0,0,3,8,10,6,4,5,2,0,0,5,0,0,0,0,0,0,0,0,0,0,0,0,0,0,0,0,0,0,0,0,0,0,0,0,0,0,0],"split_type":[0,0,0,0,0,0,0,0,0,0,0,0,0,0,0,0,0,0,0,0,0,0,0,0,0,0,0,0,0,0,0,0,0,0,0,0,0,0,0,0,0,0,0,0,0,0,0,0,0,0,0,0,0,0,0,0,0,0,0,0,0,0,0,0,0,0,0,0,0,0,0,0,0,0,0],"sum_hessian":[3.918E3,3.884E3,3.4E1,3.2E1,3.852E3,7E0,2.7E1,2.4E1,8E0,7.8E1,3.774E3,1E0,6E0,1.3E1,1.4E1,1.4E1,1E1,3E0,5E0,5.4E1,2.4E1,1.28E2,3.646E3,5E0,1E0,1.1E1,2E0,4E0,1E1,2E0,1.2E1,9E0,1E0,1E0,4E0,4.3E1,1.1E1,7E0,1.7E1,8E1,4.8E1,1.592E3,2.054E3,3E0,8E0,3E0,1E0,7E0,3E0,7E0,5E0,3E0,6E0,1.5E1,2.8E1,4E0,7E0,1E0,6E0,5E0,1.2E1,7.1E1,9E0,1.3E1,3.5E1,1.164E3,4.28E2,1E0,2.053E3,2E0,1E0,5E0,3E0,3E0,4E0],"tree_param":{"num_deleted":"0","num_feature":"11","num_nodes":"75","size_leaf_vector":"1"}},{"base_weights":[-5.993523E-4,3.0442238E-2,-8.1381155E-3,1.2029193E-3,1.10452265E-1,-6.253626E-2,-1.4781725E-3,4.3575605E-3,-2.6528263E-1,4.063669E-1,8.15325E-2,-1.3329464E-1,6.8971306E-2,3.0535689E-2,-1.4633152E-2,3.232462E-1,-3.7971814E-3,-7.873832E-2,5.0637424E-1,-3.458976E-2,2.257147E-1,2.4646667E-3,-2.5097325E-1,1.1339232E-1,-4.964227E-1,-1.0424413E-2,1.18145496E-1,-1.4309423E-1,-6.835707E-3,3.7621883E-1,-5.4809693E-2,-2.789763E-2,1.12899646E-1,5.5849814E-1,-4.1322757E-2,2.543059E-1,-1.328884E-1,3.354762E-1,-1.8429032E-2,-2.2775939E-1,8.5077606E-2,1.4713523E-1,-3.092472E-1,-4.407675E-2,1.969784E-1,-5.5627626E-1,-2.6391507E-3,5.9166085E-2,-6.335044E-2,6.339884E-2,4.0210074E-1,-4.091994E-2,-3.3109367E-1,4.2319223E-1,-9.593064E-3,1.2455409E-1,-1.3697792E-2,-3.021149E-2,5.263289E-3,2.0891678E-2,2.6070383E-1,-1.4197826E-3,1.797201E-1,8.471514E-3,1.7416929E-1,-5.8670692E-2,6.0113933E-2,1.2469484E-1,-4.41618E-2,4.8803616E-2,-7.751109E-2,-1.4431572E-1,-2.3171604E-3,3.4648642E-2,-2.1416025E-1,1.4488147E-1,-1.5131832E-3,-1.7983459E-1,-7.144877E-2,1.6809475E-2,-9.392775E-2,1.017079E-1,1.3730297E-2,-4.8597697E-2,-1.7683825E-1,5.3038824E-2,-5.4167975E-3,-2.7553523E-2,8.6860724E-2,-5.792623E-2,2.9181566E-2,3.7262477E-2,1.8160343E-1,3.0147541E-2,-6.432045E-2,-1.6224891E-1,-2.1244641E-2,1.84637E-1,-3.456023E-2,-1.2352969E-2,8.086732E-3],"categories":[],"categories_nodes":[],"categories_segments":[],"categories_sizes":[],"default_left":[0,0,0,0,0,0,0,0,0,0,0,0,0,0,0,0,0,0,0,0,0,0,0,0,0,0,0,0,0,0,0,0,0,0,0,0,0,0,0,0,0,0,0,0,0,0,0,0,0,0,0,0,0,0,0,0,0,0,0,0,0,0,0,0,0,0,0,0,0,0,0,0,0,0,0,0,0,0,0,0,0,0,0,0,0,0,0,0,0,0,0,0,0,0,0,0,0,0,0,0,0],"id":14,"left_children":[1,3,5,7,9,11,13,15,-1,17,19,21,23,25,27,29,31,-1,33,35,37,39,41,43,45,47,49,51,53,55,-1,57,59,61,-1,63,65,67,69,71,73,75,77,79,81,83,-1,85,87,89,91,93,95,97,99,-1,-1,-1,-1,-1,-1,-1,-1,-1,-1,-1,-1,-1,-1,-1,-1,-1,-1,-1,-1,-1,-1,-1,-1,-1,-1,-1,-1,-1,-1,-1,-1,-1,-1,-1,-1,-1,-1,-1,-1,-1,-1,-1,-1,-1,-1],"loss_changes":[9.1735333E-1,1.7918773E0,1.1425656E0,1.5737252E0,1.7212131E0,3.2102041E0,1.184276E0,1.4600825E0,0E0,1.3368816E0,3.155447E0,3.5792356E0,3.095251E0,2.9402187E0,1.9953462E0,4.439522E-1,1.5443699E0,0E0,6.141119E-1,3.0155897E0,2.2571788E0,2.0164232E0,2.8294225E0,1.4960132E0,2.5778127E-1,2.0626283E0,4.031909E0,2.1762447E0,2.2332516E0,2.3263752E-1,0E0,1.5071368E0,3.0142226E0,3.4557915E-1,0E0,1.975029E0,1.6894535E0,2.3056817E0,1.2153224E0,1.5568213E0,1.9780207E0,8.200714E-1,2.023263E0,1.0947716E0,1.5739422E0,9.184837E-3,0E0,2.2014313E0,3.2241976E0,1.9301357E0,2.29697E0,1.8614702E0,2.1452885E0,1.3130667E0,2.1585715E0,0E0,0E0,0E0,0E0,0E0,0E0,0E0,0E0,0E0,0E0,0E0,0E0,0E0,0E0,0E0,0E0,0E0,0E0,0E0,0E0,0E0,0E0,0E0,0E0,0E0,0E0,0E0,0E0,0E0,0E0,0E0,0E0,0E0,0E0,0E0,0E0,0E0,0E0,0E0,0E0,0E0,0E0,0E0,0E0,0E0,0E0],"parents":[2147483647,0,0,1,1,2,2,3,3,4,4,5,5,6,6,7,7,9,9,10,10,11,11,12,12,13,13,14,14,15,15,16,16,18,18,19,19,20,20,21,21,22,22,23,23,24,24,25,25,26,26,27,27,28,28,29,29,31,31,32,32,33,33,35,35,36,36,37,37,38,38,39,39,40,40,41,41,42,42,43,43,44,44,45,45,47,47,48,48,49,49,50,50,51,51,52,52,53,53,54,54],"right_children":[2,4,6,8,10,12,14,16,-1,18,20,22,24,26,28,30,32,-1,34,36,38,40,42,44,46,48,50,52,54,56,-1,58,60,62,-1,64,66,68,70,72,74,76,78,80,82,84,-1,86,88,90,92,94,96,98,100,-1,-1,-1,-1,-1,-1,-1,-1,-1,-1,-1,-1,-1,-1,-1,-1,-1,-1,-1,-1,-1,-1,-1,-1,-1,-1,-1,-1,-1,-1,-1,-1,-1,-1,-1,-1,-1,-1,-1,-1,-1,-1,-1,-1,-1,-1],"split_conditions":[9.9125E-1,3.3E0,9.92E-1,7.5E1,1.12E1,3.2E0,9.9368E-1,1.35E-1,-2.6528263E-1,3.8E-1,2.95E-1,9.9162E-1,3.37E0,3.7E1,3.6E-1,7.15E0,4E0,-7.873832E-2,5.6E1,1.85E-1,1.26E2,6.4E0,1.3E1,9.9158E-1,9.919E-1,2.45E-1,9.934E-1,3.15E0,2.5E-2,6.4E1,-5.4809693E-2,3.4E-2,5.5E1,1.0466666E1,-4.1322757E-2,3.55E1,1.275E1,6.2E-1,3.5E-2,5.4E-1,3E0,2E-1,3.3E-2,3.5E-1,9.918E-1,1.85E-1,-2.6391507E-3,9.9E1,3.4E0,3.05E0,1.8E0,9.9544E-1,3.24E0,9.952E-1,1.02E1,1.2455409E-1,-1.3697792E-2,-3.021149E-2,5.263289E-3,2.0891678E-2,2.6070383E-1,-1.4197826E-3,1.797201E-1,8.471514E-3,1.7416929E-1,-5.8670692E-2,6.0113933E-2,1.2469484E-1,-4.41618E-2,4.8803616E-2,-7.751109E-2,-1.4431572E-1,-2.3171604E-3,3.4648642E-2,-2.1416025E-1,1.4488147E-1,-1.5131832E-3,-1.7983459E-1,-7.144877E-2,1.6809475E-2,-9.392775E-2,1.017079E-1,1.3730297E-2,-4.8597697E-2,-1.7683825E-1,5.3038824E-2,-5.4167975E-3,-2.7553523E-2,8.6860724E-2,-5.792623E-2,2.9181566E-2,3.7262477E-2,1.8160343E-1,3.0147541E-2,-6.432045E-2,-1.6224891E-1,-2.1244641E-2,1.84637E-1,-3.456023E-2,-1.2352969E-2,8.086732E-3],"split_indices":[7,8,7,5,10,3,7,1,0,9,1,7,8,5,9,0,3,0,5,1,6,0,5,7,7,1,7,8,4,5,0,4,5,10,0,5,10,9,4,9,3,1,4,2,7,1,0,6,8,8,3,7,8,7,3,0,0,0,0,0,0,0,0,0,0,0,0,0,0,0,0,0,0,0,0,0,0,0,0,0,0,0,0,0,0,0,0,0,0,0,0,0,0,0,0,0,0,0,0,0,0],"split_type":[0,0,0,0,0,0,0,0,0,0,0,0,0,0,0,0,0,0,0,0,0,0,0,0,0,0,0,0,0,0,0,0,0,0,0,0,0,0,0,0,0,0,0,0,0,0,0,0,0,0,0,0,0,0,0,0,0,0,0,0,0,0,0,0,0,0,0,0,0,0,0,0,0,0,0,0,0,0,0,0,0,0,0,0,0,0,0,0,0,0,0,0,0,0,0,0,0,0,0,0,0],"sum_hessian":[3.918E3,7.65E2,3.153E3,5.61E2,2.04E2,3.43E2,2.81E3,5.6E2,1E0,1.7E1,1.87E2,2.23E2,1.2E2,8.18E2,1.992E3,1.3E1,5.47E2,2E0,1.5E1,1.04E2,8.3E1,1.04E2,1.19E2,1.12E2,8E0,5.58E2,2.6E2,1.13E2,1.879E3,1.2E1,1E0,4.54E2,9.3E1,1.4E1,1E0,2.6E1,7.8E1,5.7E1,2.6E1,2.7E1,7.7E1,1.5E1,1.04E2,3.9E1,7.3E1,7E0,1E0,2.41E2,3.17E2,2.19E2,4.1E1,7.4E1,3.9E1,1.1E1,1.868E3,1.1E1,1E0,1.74E2,2.8E2,8.9E1,4E0,1E0,1.3E1,1.6E1,1E1,6.6E1,1.2E1,4.9E1,8E0,1.5E1,1.1E1,1.2E1,1.5E1,7.5E1,2E0,4E0,1.1E1,1.9E1,8.5E1,2.9E1,1E1,3.7E1,3.6E1,1E0,6E0,9.5E1,1.46E2,2.94E2,2.3E1,2.5E1,1.94E2,1.8E1,2.3E1,4.1E1,3.3E1,2.1E1,1.8E1,8E0,3E0,1.002E3,8.66E2],"tree_param":{"num_deleted":"0","num_feature":"11","num_nodes":"101","size_leaf_vector":"1"}},{"base_weights":[-4.34091E-4,3.7621784E-3,-5.8309298E-2,-4.2358586E-3,1.5640733E-1,-3.0246298E-3,-2.0646092E-1,-1.5871422E-1,-7.3407206E-4,3.35863E-1,7.398368E-2,1.2487078E-2,-3.2326385E-1,-2.4175368E-1,2.0575714E-1,-1.9452637E-1,2.3684831E-1,9.827969E-4,-2.7686974E-1,1.6330142E-1,6.4693683E-1,5.8672357E-1,2.4724E-2,1.2517466E-1,-3.578003E-2,-1.1659761E-1,-4.3306697E-2,-1.0117599E0,-2.0422761E-1,-1.1731263E-1,-5.225782E-1,-6.6690106E-4,4.2805207E-1,-5.4483736E-1,-1.8176928E-1,8.475105E-2,2.4293755E-1,1.0355272E-1,2.3289324E-1,7.1051526E-1,1.977396E-2,2.3576841E-1,-8.111518E-2,-2.5078377E-1,2.0250252E-1,-1.7825009E-1,2.4350213E-2,-9.348021E-2,-3.6181176E-1,2.0658657E-1,-2.4731587E-1,1.3863674E-1,-5.6294147E-2,-1.6383916E-1,-3.2459665E-2,-5.845953E-3,5.544033E-3,4.005599E-2,2.6177984E-1,-2.1907397E-1,2.9519893E-2,1.9271398E-2,-8.688765E-2,4.079745E-2,-1.039081E-1,5.0924875E-2,8.5148815E-4,2.326578E-1,2.8564382E-2,1.8556023E-2,-9.657741E-3,-1.22293485E-2,2.3759098E-1,6.7518905E-2,-4.9127687E-2,-8.322045E-2,-1.6836405E-3,7.3928654E-2,-2.5112754E-2,4.4405222E-2,-7.2617054E-2,1.943167E-2,-6.881495E-2,-3.5332847E-2,8.408292E-2,-2.5920564E-2,-1.0199953E-1],"categories":[],"categories_nodes":[],"categories_segments":[],"categories_sizes":[],"default_left":[0,0,0,0,0,0,0,0,0,0,0,0,0,0,0,0,0,0,0,0,0,0,0,0,0,0,0,0,0,0,0,0,0,0,0,0,0,0,0,0,0,0,0,0,0,0,0,0,0,0,0,0,0,0,0,0,0,0,0,0,0,0,0,0,0,0,0,0,0,0,0,0,0,0,0,0,0,0,0,0,0,0,0,0,0,0,0],"id":15,"left_children":[1,3,5,7,9,11,13,15,17,19,21,23,25,27,-1,29,-1,31,33,35,37,39,41,43,45,-1,-1,47,49,51,53,55,57,59,61,63,-1,65,-1,67,69,71,73,75,77,79,81,-1,-1,83,85,-1,-1,-1,-1,-1,-1,-1,-1,-1,-1,-1,-1,-1,-1,-1,-1,-1,-1,-1,-1,-1,-1,-1,-1,-1,-1,-1,-1,-1,-1,-1,-1,-1,-1,-1,-1],"loss_changes":[9.5198756E-1,4.462911E0,2.1698613E0,1.8791445E0,2.6671848E0,9.6772337E-1,2.433259E0,2.7682967E0,1.6112257E0,2.95408E0,3.1679263E0,1.0161519E0,4.919195E-2,1.816042E0,0E0,1.8384533E0,0E0,2.3802056E0,4.361261E-1,1.8610877E0,1.3256054E0,7.5797033E-1,2.6101894E0,1.6788198E0,1.126586E0,0E0,0E0,3.227663E-2,1.2547779E0,2.6134813E0,7.75435E-2,1.2132618E0,1.5856256E0,6.6816616E-1,4.6967292E-1,8.20264E-1,0E0,3.2853097E-2,0E0,2.8616905E-1,8.55137E-3,6.030797E0,2.0105462E0,6.3702285E-2,6.1152303E-1,8.4773326E-1,9.687041E-1,0E0,0E0,2.0032546E-1,8.952868E-1,0E0,0E0,0E0,0E0,0E0,0E0,0E0,0E0,0E0,0E0,0E0,0E0,0E0,0E0,0E0,0E0,0E0,0E0,0E0,0E0,0E0,0E0,0E0,0E0,0E0,0E0,0E0,0E0,0E0,0E0,0E0,0E0,0E0,0E0,0E0,0E0],"parents":[2147483647,0,0,1,1,2,2,3,3,4,4,5,5,6,6,7,7,8,8,9,9,10,10,11,11,12,12,13,13,15,15,17,17,18,18,19,19,20,20,21,21,22,22,23,23,24,24,27,27,28,28,29,29,30,30,31,31,32,32,33,33,34,34,35,35,37,37,39,39,40,40,41,41,42,42,43,43,44,44,45,45,46,46,49,49,50,50],"right_children":[2,4,6,8,10,12,14,16,18,20,22,24,26,28,-1,30,-1,32,34,36,38,40,42,44,46,-1,-1,48,50,52,54,56,58,60,62,64,-1,66,-1,68,70,72,74,76,78,80,82,-1,-1,84,86,-1,-1,-1,-1,-1,-1,-1,-1,-1,-1,-1,-1,-1,-1,-1,-1,-1,-1,-1,-1,-1,-1,-1,-1,-1,-1,-1,-1,-1,-1,-1,-1,-1,-1,-1,-1],"split_conditions":[1.5E1,1.355E1,3.24E0,8.9E0,9.1E0,7.5E-2,8E-1,9.987E-1,9.987E-1,1.92E2,3.5E-2,6.6E0,5.1E-1,9.9706E-1,2.0575714E-1,7.5E0,2.3684831E-1,9.986E-1,1.625E2,1.0002E0,1.42E1,3.27E0,3.09E0,1.54E1,7E0,-1.1659761E-1,-4.3306697E-2,6.15E0,2.3E-1,2.15E-1,5.9E1,4.8E-1,3.5E-1,6.5E-2,2.7E1,2.85E-1,2.4293755E-1,2.45E-1,2.3289324E-1,7.7E0,6.8E0,3.07E0,4.2E-2,5E-2,5.15E1,2E-1,1.01E1,-9.348021E-2,-3.6181176E-1,5.1E0,2.25E-1,1.3863674E-1,-5.6294147E-2,-1.6383916E-1,-3.2459665E-2,-5.845953E-3,5.544033E-3,4.005599E-2,2.6177984E-1,-2.1907397E-1,2.9519893E-2,1.9271398E-2,-8.688765E-2,4.079745E-2,-1.039081E-1,5.0924875E-2,8.5148815E-4,2.326578E-1,2.8564382E-2,1.8556023E-2,-9.657741E-3,-1.22293485E-2,2.3759098E-1,6.7518905E-2,-4.9127687E-2,-8.322045E-2,-1.6836405E-3,7.3928654E-2,-2.5112754E-2,4.4405222E-2,-7.2617054E-2,1.943167E-2,-6.881495E-2,-3.5332847E-2,8.408292E-2,-2.5920564E-2,-1.0199953E-1],"split_indices":[3,3,8,10,10,4,9,7,7,6,4,0,9,7,0,0,0,7,6,7,3,8,8,3,0,0,0,0,2,1,5,9,2,4,5,1,0,1,0,0,0,8,4,4,5,1,10,0,0,0,1,0,0,0,0,0,0,0,0,0,0,0,0,0,0,0,0,0,0,0,0,0,0,0,0,0,0,0,0,0,0,0,0,0,0,0,0],"split_type":[0,0,0,0,0,0,0,0,0,0,0,0,0,0,0,0,0,0,0,0,0,0,0,0,0,0,0,0,0,0,0,0,0,0,0,0,0,0,0,0,0,0,0,0,0,0,0,0,0,0,0,0,0,0,0,0,0,0,0,0,0,0,0,0,0,0,0,0,0,0,0,0,0,0,0,0,0,0,0,0,0,0,0,0,0,0,0],"sum_hessian":[3.918E3,3.654E3,2.64E2,3.473E3,1.81E2,1.93E2,7.1E1,7.6E1,3.397E3,5.6E1,1.25E2,1.85E2,8E0,6.9E1,2E0,7.4E1,2E0,3.377E3,2E1,3.7E1,1.9E1,1E1,1.15E2,5.5E1,1.3E2,5E0,3E0,2E0,6.7E1,6.1E1,1.3E1,3.365E3,1.2E1,4E0,1.6E1,3.4E1,3E0,4E0,1.5E1,8E0,2E0,3.8E1,7.7E1,9E0,4.6E1,3.8E1,9.2E1,1E0,1E0,6E0,6.1E1,6E0,5.5E1,1.2E1,1E0,1.697E3,1.668E3,8E0,4E0,3E0,1E0,5E0,1.1E1,3.1E1,3E0,2E0,2E0,7E0,1E0,1E0,1E0,2.6E1,1.2E1,1.6E1,6.1E1,8E0,1E0,4E1,6E0,6E0,3.2E1,8E1,1.2E1,1E0,5E0,2.3E1,3.8E1],"tree_param":{"num_deleted":"0","num_feature":"11","num_nodes":"87","size_leaf_vector":"1"}},{"base_weights":[-1.6525784E-4,1.0201467E-3,-1.8484467E-1,-9.857991E-4,1.3374084E-1,-2.8907299E-2,-3.513679E-1,6.617042E-3,-3.1238109E-2,2.5406975E-1,-2.4128199E-2,5.3158958E-2,-1.0426097E-1,9.90181E-2,-5.1249856E-1,9.1403536E-4,8.710079E-2,5.920308E-2,-5.6151234E-2,2.9928297E-1,-1.4854693E-1,1.479892E-1,-2.0762938E-1,1.3291188E-1,-3.3314824E-3,1.0892201E-2,4.307256E-2,-5.690251E-2,-1.7329124E-1,2.799563E-3,-2.4296054E-1,1.5833497E-1,-2.6714083E-2,1.0428942E-3,2.5661415E-1,-3.6638707E-2,-2.2956395E-1,1.8620881E-1,1.7608826E-1,-8.21163E-2,-4.6745776E-3,-7.30101E-2,3.2286495E-1,-2.6309368E-1,6.8691306E-2,5.927775E-2,2.0203078E-2,2.3751872E-2,-2.8937245E-2,3.8757303E-3,-1.1806485E-2,-1.1263962E-1,5.1888995E-2,1.655655E-2,9.5157295E-2,-3.7049774E-2,7.3943466E-2,-4.107755E-2,2.0534175E-2,-1.2351308E-1,1.0420491E-1,-1.7510869E-2,3.65877E-2,-2.7339919E-2,-1.0817687E-1,7.1920805E-2,-3.839382E-2,3.5654604E-2,-7.398491E-2,1.1094475E-2,1.2359875E-1,-8.6533934E-2,2.3679973E-3,-3.7565948E-3,1.6226329E-2],"categories":[],"categories_nodes":[],"categories_segments":[],"categories_sizes":[],"default_left":[0,0,0,0,0,0,0,0,0,0,0,0,0,0,0,0,0,0,0,0,0,0,0,0,0,0,0,0,0,0,0,0,0,0,0,0,0,0,0,0,0,0,0,0,0,0,0,0,0,0,0,0,0,0,0,0,0,0,0,0,0,0,0,0,0,0,0,0,0,0,0,0,0,0,0],"id":16,"left_children":[1,3,5,7,9,11,13,15,17,19,21,23,-1,25,27,29,31,33,35,37,39,41,43,45,47,-1,-1,-1,-1,49,51,53,55,57,59,61,63,65,-1,-1,-1,67,69,71,-1,-1,-1,73,-1,-1,-1,-1,-1,-1,-1,-1,-1,-1,-1,-1,-1,-1,-1,-1,-1,-1,-1,-1,-1,-1,-1,-1,-1,-1,-1],"loss_changes":[8.5813534E-1,1.0370997E0,6.3902265E-1,8.8296014E-1,1.1079106E0,3.8455665E-1,9.215988E-1,1.4081303E0,1.7405202E0,6.451764E-1,8.5190433E-1,5.4506123E-2,0E0,5.964007E-3,7.969189E-2,1.3185595E0,1.6500543E0,1.9171371E0,2.0387397E0,8.665707E-1,6.2309965E-2,5.6463623E-1,3.7504524E-1,7.89839E-3,2.246836E-2,0E0,0E0,0E0,0E0,1.2141404E0,1.2774042E0,2.0306745E0,2.1192758E0,1.2183263E0,2.4473565E0,1.8854414E0,1.073556E0,4.174865E-1,0E0,0E0,0E0,2.6246524E-1,1.8861198E-1,8.4720016E-2,0E0,0E0,0E0,8.380082E-3,0E0,0E0,0E0,0E0,0E0,0E0,0E0,0E0,0E0,0E0,0E0,0E0,0E0,0E0,0E0,0E0,0E0,0E0,0E0,0E0,0E0,0E0,0E0,0E0,0E0,0E0,0E0],"parents":[2147483647,0,0,1,1,2,2,3,3,4,4,5,5,6,6,7,7,8,8,9,9,10,10,11,11,13,13,14,14,15,15,16,16,17,17,18,18,19,19,20,20,21,21,22,22,23,23,24,24,29,29,30,30,31,31,32,32,33,33,34,34,35,35,36,36,37,37,41,41,42,42,43,43,47,47],"right_children":[2,4,6,8,10,12,14,16,18,20,22,24,-1,26,28,30,32,34,36,38,40,42,44,46,48,-1,-1,-1,-1,50,52,54,56,58,60,62,64,66,-1,-1,-1,68,70,72,-1,-1,-1,74,-1,-1,-1,-1,-1,-1,-1,-1,-1,-1,-1,-1,-1,-1,-1,-1,-1,-1,-1,-1,-1,-1,-1,-1,-1,-1,-1],"split_conditions":[2.48E2,2.28E2,9.533334E0,1.73E2,5.5E1,1.775E1,3.2E1,1.645E2,2.35E-1,1.735E1,4.3E-1,4.6E-2,-1.0426097E-1,2.15E-1,5.9E0,1.64E2,4.8E1,7.6E0,6.3E-1,1.33E1,8.4E0,6.4E1,6.8E1,7.15E0,9.2E0,1.0892201E-2,4.307256E-2,-5.690251E-2,-1.7329124E-1,9.9544E-1,3.35E-1,5.2E-1,6.05E1,4.4E1,4.4E-1,5.8E-1,1.95E2,5.6E-2,1.7608826E-1,-8.21163E-2,-4.6745776E-3,2.65E-1,2.15E-1,1.995E1,6.8691306E-2,5.927775E-2,2.0203078E-2,8.7E0,-2.8937245E-2,3.8757303E-3,-1.1806485E-2,-1.1263962E-1,5.1888995E-2,1.655655E-2,9.5157295E-2,-3.7049774E-2,7.3943466E-2,-4.107755E-2,2.0534175E-2,-1.2351308E-1,1.0420491E-1,-1.7510869E-2,3.65877E-2,-2.7339919E-2,-1.0817687E-1,7.1920805E-2,-3.839382E-2,3.5654604E-2,-7.398491E-2,1.1094475E-2,1.2359875E-1,-8.6533934E-2,2.3679973E-3,-3.7565948E-3,1.6226329E-2],"split_indices":[6,6,10,6,5,3,5,6,1,3,2,4,0,1,3,6,5,0,9,3,0,5,5,0,0,0,0,0,0,7,1,9,5,5,9,9,6,4,0,0,0,1,1,3,0,0,0,10,0,0,0,0,0,0,0,0,0,0,0,0,0,0,0,0,0,0,0,0,0,0,0,0,0,0,0],"split_type":[0,0,0,0,0,0,0,0,0,0,0,0,0,0,0,0,0,0,0,0,0,0,0,0,0,0,0,0,0,0,0,0,0,0,0,0,0,0,0,0,0,0,0,0,0,0,0,0,0,0,0,0,0,0,0,0,0,0,0,0,0,0,0,0,0,0,0,0,0,0,0,0,0,0,0],"sum_hessian":[3.918E3,3.894E3,2.4E1,3.837E3,5.7E1,1.3E1,1.1E1,3.067E3,7.7E2,3.2E1,2.5E1,1.1E1,2E0,3E0,8E0,2.865E3,2.02E2,1.66E2,6.04E2,2.9E1,3E0,1.3E1,1.2E1,4E0,7E0,2E0,1E0,2E0,6E0,2.844E3,2.1E1,1.24E2,7.8E1,1.29E2,3.7E1,5.44E2,6E1,2.2E1,7E0,1E0,2E0,6E0,7E0,1.1E1,1E0,1E0,3E0,6E0,1E0,2.294E3,5.5E2,1.6E1,5E0,7.6E1,4.8E1,5.8E1,2E1,4.2E1,8.7E1,4E0,3.3E1,4.79E2,6.5E1,3E1,3E1,1.9E1,3E0,3E0,3E0,2E0,5E0,1E1,1E0,3E0,3E0],"tree_param":{"num_deleted":"0","num_feature":"11","num_nodes":"75","size_leaf_vector":"1"}},{"base_weights":[-1.3867943E-4,-1.0907899E-1,1.526075E-3,-1.911656E-1,2.6649582E-1,1.2537862E-1,-6.6092034E-4,-2.4584663E-1,2.0082213E-2,-6.1234117E-2,3.9704883E-1,5.3107288E-2,5.3201455E-1,2.0820803E-3,-1.5331747E-1,1.8256748E-1,-2.8661913E-1,1.8634804E-1,-1.4953065E-1,-5.5081848E-2,4.58823E-2,1.3246813E-1,1.2820173E-2,1.3489877E-1,-3.0862895E-1,-7.332802E-4,6.659348E-1,-1.7208084E-3,6.549575E-2,-4.064718E-2,-4.8230967E-1,2.2362186E-2,7.599721E-2,4.1244697E-2,-3.28891E-1,-5.305295E-2,8.830648E-2,-6.0845055E-2,-8.591652E-3,5.92756E-1,4.2270567E-2,-1.11852266E-1,-1.3116837E-2,1.6011143E-2,7.458196E-1,-1.1360649E-2,2.0804241E-2,-1.763936E-1,1.17945746E-1,-1.803254E-1,1.372361E-1,-7.6732695E-1,-1.4370245E-1,-1.2161065E-2,3.2783415E-2,-1.1246789E-1,-1.6505528E-3,2.167963E-1,4.061222E-2,-4.8696637E-2,3.680959E-2,5.491748E-2,-6.0820058E-2,8.83018E-2,2.6026317E-1,-5.1398587E-4,-2.00584E-2,8.3228685E-3,-5.4660175E-2,2.185971E-1,-7.40744E-2,5.1565953E-2,-2.0115882E-2,3.6893405E-2,-9.688826E-2,-6.421056E-2,1.0165495E-1,-3.530488E-2,-2.5014663E-1,-6.1662022E-2,5.2649762E-2],"categories":[],"categories_nodes":[],"categories_segments":[],"categories_sizes":[],"default_left":[0,0,0,0,0,0,0,0,0,0,0,0,0,0,0,0,0,0,0,0,0,0,0,0,0,0,0,0,0,0,0,0,0,0,0,0,0,0,0,0,0,0,0,0,0,0,0,0,0,0,0,0,0,0,0,0,0,0,0,0,0,0,0,0,0,0,0,0,0,0,0,0,0,0,0,0,0,0,0,0,0],"id":17,"left_children":[1,3,5,7,9,11,13,15,17,19,21,23,25,27,29,31,33,35,37,-1,-1,-1,-1,39,41,-1,43,45,47,49,51,-1,-1,53,55,-1,-1,-1,-1,57,59,-1,61,-1,63,65,67,69,71,73,75,77,79,-1,-1,-1,-1,-1,-1,-1,-1,-1,-1,-1,-1,-1,-1,-1,-1,-1,-1,-1,-1,-1,-1,-1,-1,-1,-1,-1,-1],"loss_changes":[7.1091175E-1,1.8698951E0,1.0458924E0,5.7094836E-1,4.9496025E-1,1.9407507E0,1.5894263E0,7.335603E-1,3.380738E-1,1.3291708E-1,1.0729933E-1,1.7576764E0,7.1737623E-1,8.993802E-1,2.4639273E0,1.1691511E-2,5.1250386E-1,2.8741747E-1,3.2842755E-2,0E0,0E0,0E0,0E0,2.0106473E0,2.0383894E-1,0E0,3.5167193E-1,7.6434463E-1,2.697782E0,1.2919146E0,1.5303848E0,0E0,0E0,3.224916E-2,4.7398663E-1,0E0,0E0,0E0,0E0,3.7747645E-1,6.9457144E-1,0E0,1.4870624E-1,0E0,1.2934041E-1,1.3197333E0,1.4911065E0,2.6052704E0,1.7478662E0,1.2943096E0,1.701411E0,2.9065704E-1,2.1372013E-1,0E0,0E0,0E0,0E0,0E0,0E0,0E0,0E0,0E0,0E0,0E0,0E0,0E0,0E0,0E0,0E0,0E0,0E0,0E0,0E0,0E0,0E0,0E0,0E0,0E0,0E0,0E0,0E0],"parents":[2147483647,0,0,1,1,2,2,3,3,4,4,5,5,6,6,7,7,8,8,9,9,10,10,11,11,12,12,13,13,14,14,15,15,16,16,17,17,18,18,23,23,24,24,26,26,27,27,28,28,29,29,30,30,33,33,34,34,39,39,40,40,42,42,44,44,45,45,46,46,47,47,48,48,49,49,50,50,51,51,52,52],"right_children":[2,4,6,8,10,12,14,16,18,20,22,24,26,28,30,32,34,36,38,-1,-1,-1,-1,40,42,-1,44,46,48,50,52,-1,-1,54,56,-1,-1,-1,-1,58,60,-1,62,-1,64,66,68,70,72,74,76,78,80,-1,-1,-1,-1,-1,-1,-1,-1,-1,-1,-1,-1,-1,-1,-1,-1,-1,-1,-1,-1,-1,-1,-1,-1,-1,-1,-1,-1],"split_conditions":[5.2E0,3.4E-1,5.5E0,3.51E0,2.05E-1,3.53E0,3.53E0,1.75E-1,1.9E1,4.1E-1,3.6E-2,3.7E-1,1.65E-1,3.41E0,9.96E-1,1.7E-1,1.1E1,1.15E-1,1.15E2,-5.5081848E-2,4.58823E-2,1.3246813E-1,1.2820173E-2,3.8E-1,6.3E-1,-7.332802E-4,9.8889E-1,9E0,1.05E2,3.85E1,5.9E-2,2.2362186E-2,7.599721E-2,4.9E0,1.69E2,-5.305295E-2,8.830648E-2,-6.0845055E-2,-8.591652E-3,3E-1,1.5E0,-1.11852266E-1,2.95E-1,1.6011143E-2,2.25E-1,1.76E2,7.5E-2,2.3E-2,9.964E-1,5.8E0,4.6E-2,1.1E-1,3.85E-1,-1.2161065E-2,3.2783415E-2,-1.1246789E-1,-1.6505528E-3,2.167963E-1,4.061222E-2,-4.8696637E-2,3.680959E-2,5.491748E-2,-6.0820058E-2,8.83018E-2,2.6026317E-1,-5.1398587E-4,-2.00584E-2,8.3228685E-3,-5.4660175E-2,2.185971E-1,-7.40744E-2,5.1565953E-2,-2.0115882E-2,3.6893405E-2,-9.688826E-2,-6.421056E-2,1.0165495E-1,-3.530488E-2,-2.5014663E-1,-6.1662022E-2,5.2649762E-2],"split_indices":[0,2,0,8,1,8,8,1,5,2,4,2,1,8,7,1,5,1,6,0,0,0,0,9,9,0,7,3,6,5,4,0,0,0,6,0,0,0,0,2,3,0,1,0,1,6,4,4,7,0,4,1,1,0,0,0,0,0,0,0,0,0,0,0,0,0,0,0,0,0,0,0,0,0,0,0,0,0,0,0,0],"split_type":[0,0,0,0,0,0,0,0,0,0,0,0,0,0,0,0,0,0,0,0,0,0,0,0,0,0,0,0,0,0,0,0,0,0,0,0,0,0,0,0,0,0,0,0,0,0,0,0,0,0,0,0,0,0,0,0,0,0,0,0,0,0,0,0,0,0,0,0,0,0,0,0,0,0,0,0,0,0,0,0,0],"sum_hessian":[3.918E3,5.8E1,3.86E3,4.8E1,1E1,6.6E1,3.794E3,3.8E1,1E1,3E0,7E0,5.7E1,9E0,3.728E3,6.6E1,3E0,3.5E1,5E0,5E0,2E0,1E0,6E0,1E0,4.7E1,1E1,2E0,7E0,3.518E3,2.1E2,5E1,1.6E1,2E0,1E0,4E0,3.1E1,1E0,4E0,3E0,2E0,7E0,4E1,8E0,2E0,1E0,6E0,2.464E3,1.054E3,3.7E1,1.73E2,2.8E1,2.2E1,8E0,8E0,2E0,2E0,2.7E1,4E0,5E0,2E0,1.1E1,2.9E1,1E0,1E0,2E0,4E0,2.1E3,3.64E2,1.02E3,3.4E1,2E0,3.5E1,1.34E2,3.9E1,9E0,1.9E1,8E0,1.4E1,1E0,7E0,7E0,1E0],"tree_param":{"num_deleted":"0","num_feature":"11","num_nodes":"81","size_leaf_vector":"1"}},{"base_weights":[2.6259504E-6,-2.5752953E-1,5.952587E-4,-1.2025583E-1,-2.0335788E-1,-1.2307718E-3,8.280259E-2,-2.4397922E-1,2.774048E-3,8.4796635E-4,-1.5515554E-1,2.472717E-1,-9.9731855E-2,-2.1972656E-2,-8.2943246E-2,-1.1890949E-2,2.5862433E-2,1.7305517E-3,-3.0147448E-1,6.646866E-2,-1.9793373E-1,-2.1280493E-1,3.2350925E-1,1.57476E-1,-1.7699268E-1,-1.7814708E-3,5.6507386E-2,-1.132058E-1,-2.2304857E-2,-4.684748E-2,9.261504E-2,-3.7819833E-1,-1.3909315E-1,-3.5576743E-1,9.6400894E-2,5.8709437E-1,1.8461607E-1,-8.240881E-2,3.31134E-1,1.567219E-1,-2.0446439E-1,5.140656E-4,-2.509474E-2,1.3505222E-1,1.2021384E-2,1.1707478E-2,-5.2305702E-2,-1.6978005E-1,-6.506784E-2,9.036828E-3,-6.9828585E-2,-1.17334165E-1,-3.2157257E-2,-1.0434008E-2,5.3814415E-2,-4.4010546E-2,1.9814079E-1,-8.524694E-2,7.004524E-2,-7.860551E-2,3.7401106E-2,1.2596229E-1,-1.6885115E-2,6.287763E-2,7.6472284E-3,-5.120917E-2,-1.3544093E-1],"categories":[],"categories_nodes":[],"categories_segments":[],"categories_sizes":[],"default_left":[0,0,0,0,0,0,0,0,0,0,0,0,0,0,0,0,0,0,0,0,0,0,0,0,0,0,0,0,0,0,0,0,0,0,0,0,0,0,0,0,0,0,0,0,0,0,0,0,0,0,0,0,0,0,0,0,0,0,0,0,0,0,0,0,0,0,0],"id":18,"left_children":[1,3,5,7,-1,9,11,13,15,17,19,21,23,-1,-1,-1,-1,25,27,29,31,33,35,37,39,41,43,-1,-1,45,-1,47,49,51,53,55,57,59,61,63,65,-1,-1,-1,-1,-1,-1,-1,-1,-1,-1,-1,-1,-1,-1,-1,-1,-1,-1,-1,-1,-1,-1,-1,-1,-1,-1],"loss_changes":[5.982789E-1,4.3778574E-1,5.871942E-1,1.22450195E-1,0E0,1.224654E0,2.5764694E0,1.9448102E-3,2.1109404E-2,1.0083212E0,4.966712E-1,1.6472249E0,8.426279E-1,0E0,0E0,0E0,0E0,7.2478664E-1,1.6151607E-1,2.6151818E-1,4.0349078E-1,3.437302E-1,1.3194098E0,4.4386753E-1,3.2541084E-1,1.0133272E0,1.4507301E0,0E0,0E0,8.344812E-2,0E0,1.8008041E-1,5.4592E-1,2.0076036E-3,3.889525E-2,7.968397E-1,6.8486226E-1,2.186329E-1,2.2990948E-1,1.5471987E-2,1.7315531E-1,0E0,0E0,0E0,0E0,0E0,0E0,0E0,0E0,0E0,0E0,0E0,0E0,0E0,0E0,0E0,0E0,0E0,0E0,0E0,0E0,0E0,0E0,0E0,0E0,0E0,0E0],"parents":[2147483647,0,0,1,1,2,2,3,3,5,5,6,6,7,7,8,8,9,9,10,10,11,11,12,12,17,17,18,18,19,19,20,20,21,21,22,22,23,23,24,24,25,25,26,26,29,29,31,31,32,32,33,33,34,34,35,35,36,36,37,37,38,38,39,39,40,40],"right_children":[2,4,6,8,-1,10,12,14,16,18,20,22,24,-1,-1,-1,-1,26,28,30,32,34,36,38,40,42,44,-1,-1,46,-1,48,50,52,54,56,58,60,62,64,66,-1,-1,-1,-1,-1,-1,-1,-1,-1,-1,-1,-1,-1,-1,-1,-1,-1,-1,-1,-1,-1,-1,-1,-1,-1,-1],"split_conditions":[8E-1,4.3E-2,1.1E-1,1.0533334E1,-2.0335788E-1,7.9E-2,4.7E-1,2.9E-2,2.45E-1,7.9E-1,4.1E-1,3.6E-1,1.5E0,-2.1972656E-2,-8.2943246E-2,-1.1890949E-2,2.5862433E-2,2.09E2,1.84E2,3.22E0,4.6E-1,1.42E-1,1.36E-1,1.35E0,9.9142E-1,1.96E2,2.1E2,-1.132058E-1,-2.2304857E-2,7.3E0,9.261504E-2,2.45E-1,5E-1,7.4E-1,6.15E0,5.9E0,1.42E-1,1.5E-1,5.5E-1,6.15E0,6.5E-1,5.140656E-4,-2.509474E-2,1.3505222E-1,1.2021384E-2,1.1707478E-2,-5.2305702E-2,-1.6978005E-1,-6.506784E-2,9.036828E-3,-6.9828585E-2,-1.17334165E-1,-3.2157257E-2,-1.0434008E-2,5.3814415E-2,-4.4010546E-2,1.9814079E-1,-8.524694E-2,7.004524E-2,-7.860551E-2,3.7401106E-2,1.2596229E-1,-1.6885115E-2,6.287763E-2,7.6472284E-3,-5.120917E-2,-1.3544093E-1],"split_indices":[3,4,4,10,0,4,9,4,1,2,9,9,3,0,0,0,0,6,6,8,9,4,4,3,7,6,6,0,0,0,0,1,9,2,0,0,4,4,2,0,9,0,0,0,0,0,0,0,0,0,0,0,0,0,0,0,0,0,0,0,0,0,0,0,0,0,0],"split_type":[0,0,0,0,0,0,0,0,0,0,0,0,0,0,0,0,0,0,0,0,0,0,0,0,0,0,0,0,0,0,0,0,0,0,0,0,0,0,0,0,0,0,0,0,0,0,0,0,0,0,0,0,0,0,0,0,0,0,0,0,0,0,0,0,0,0,0],"sum_hessian":[3.918E3,8E0,3.91E3,7E0,1E0,3.826E3,8.4E1,3E0,4E0,3.776E3,5E1,4.4E1,4E1,1E0,2E0,3E0,1E0,3.766E3,1E1,8E0,4.2E1,6E0,3.8E1,9E0,3.1E1,3.54E3,2.26E2,7E0,3E0,6E0,2E0,9E0,3.3E1,4E0,2E0,1.2E1,2.6E1,4E0,5E0,2E0,2.9E1,3.396E3,1.44E2,8E0,2.18E2,4E0,2E0,3E0,6E0,1.2E1,2.1E1,3E0,1E0,1E0,1E0,1E0,1.1E1,2E0,2.4E1,2E0,2E0,4E0,1E0,1E0,1E0,2.7E1,2E0],"tree_param":{"num_deleted":"0","num_feature":"11","num_nodes":"67","size_leaf_vector":"1"}},{"base_weights":[-1.4267176E-4,-1.4894229E-1,8.124331E-4,-4.0483007E-1,-8.0924146E-2,1.9857463E-1,4.787612E-5,-1.6566354E-1,2.7704502E-2,8.221515E-2,-1.3704363E-1,3.163552E-1,-1.0025749E-1,-1.8004427E-2,7.99891E-3,-1.7370844E-2,3.654579E-2,-1.9830024E-1,3.7380982E-2,4.1681486E-1,-2.7142668E-2,1.5719414E-2,-5.4844573E-2,-8.83648E-3,-1.2965335E-1,2.1649972E-1,5.491393E-3,-2.3671389E-1,-1.2464047E-3,6.3286595E-2,-4.4596102E-2,2.1240044E-2,1.5166858E-1,-9.5636846E-4,8.030105E-3,-2.6522538E-2,4.496943E-2,-3.415762E-1,-3.3407424E-2,2.7184775E-1,1.4031713E-1,2.3154939E-2,-1.691216E-2,-4.2570777E-2,-1.0303656E-1,5.7404716E-3,-1.6481789E-2,-5.2261353E-2,2.7458003E-2,-3.8179226E-2,-1.2628135E-1,6.9289856E-2,-2.4524055E-2,-2.5470868E-2,7.7151686E-2,-2.5808379E-2,8.996005E-3,-1.07045155E-2,1.1094739E-2],"categories":[],"categories_nodes":[],"categories_segments":[],"categories_sizes":[],"default_left":[0,0,0,0,0,0,0,0,0,0,0,0,0,0,0,0,0,0,0,0,0,0,0,0,0,0,0,0,0,0,0,0,0,0,0,0,0,0,0,0,0,0,0,0,0,0,0,0,0,0,0,0,0,0,0,0,0,0,0],"id":19,"left_children":[1,3,5,7,9,11,13,-1,-1,15,17,19,21,23,25,-1,-1,27,29,31,-1,33,-1,35,37,39,41,43,-1,-1,-1,-1,-1,-1,-1,45,47,49,51,-1,53,55,57,-1,-1,-1,-1,-1,-1,-1,-1,-1,-1,-1,-1,-1,-1,-1,-1],"loss_changes":[5.5708635E-1,4.0236473E-1,5.889163E-1,4.1737092E-1,2.0352821E-1,5.596661E-1,5.572013E-1,0E0,0E0,4.0349204E-2,1.783672E-1,4.872825E-1,5.0747707E-2,1.2138575E0,1.407809E0,0E0,0E0,8.85106E-2,1.9281347E-1,2.4057627E-1,0E0,7.1197154E-4,0E0,1.0460653E0,1.8242927E0,1.5541316E0,1.0546062E0,5.2465677E-2,0E0,0E0,0E0,0E0,0E0,0E0,0E0,1.0740311E0,2.7914684E0,4.226582E-1,8.2399976E-1,0E0,8.113783E-1,1.1139848E0,1.1899239E0,0E0,0E0,0E0,0E0,0E0,0E0,0E0,0E0,0E0,0E0,0E0,0E0,0E0,0E0,0E0,0E0],"parents":[2147483647,0,0,1,1,2,2,3,3,4,4,5,5,6,6,9,9,10,10,11,11,12,12,13,13,14,14,17,17,18,18,19,19,21,21,23,23,24,24,25,25,26,26,27,27,35,35,36,36,37,37,38,38,40,40,41,41,42,42],"right_children":[2,4,6,8,10,12,14,-1,-1,16,18,20,22,24,26,-1,-1,28,30,32,-1,34,-1,36,38,40,42,44,-1,-1,-1,-1,-1,-1,-1,46,48,50,52,-1,54,56,58,-1,-1,-1,-1,-1,-1,-1,-1,-1,-1,-1,-1,-1,-1,-1,-1],"split_conditions":[4E-2,3.16E0,6E-2,6.7E0,9.9142E-1,5.1E-1,2.1E0,-1.6566354E-1,2.7704502E-2,2.1E-2,9.938E-1,2.7E0,6.2E-1,9.942E-1,2.2E0,-1.7370844E-2,3.654579E-2,6.3E0,4.9E0,2.95E-1,-2.7142668E-2,6.1E0,-5.4844573E-2,3.85E1,7.3E0,4.1E-1,4.6E-2,